1661 100
🇸🇰 0.15282736718654633 0.24256764352321625 0.04028848558664322 0.24326135218143463 0.12474492937326431 -0.21864880621433258 -0.13303551077842712 0.015887785702943802 0.11283348500728607 -0.0890640839934349 0.006597138941287994 -0.2237100601196289 0.18259850144386292 0.3598898649215698 0.10832435637712479 -0.19587264955043793 0.0024274231400340796 0.02046559937298298 0.1269504576921463 0.11131451278924942 -0.02952391281723976 -0.008139729499816895 0.00574639393016696 0.2263907492160797 -0.12282295525074005 0.01687263511121273 0.12750393152236938 0.0023867241106927395 -0.06886409223079681 -0.2015586495399475 0.0024541900493204594 0.013295532204210758 0.1612359881401062 -0.09072085469961166 0.13265696167945862 -0.11745058000087738 0.07639725506305695 -0.11776804178953171 0.011151514016091824 -0.18982063233852386 -0.02769378386437893 -0.15243494510650635 0.015580270439386368 -0.11744868010282516 -0.2421029955148697 -0.27847087383270264 -0.43711376190185547 -0.2159266620874405 -0.0006324555142782629 -0.07841338217258453 -0.09861154854297638 0.235320046544075 0.20278789103031158 -0.29066401720046997 0.26999393105506897 -0.02614668384194374 -0.04885591194033623 -0.0186627097427845 -0.2088387906551361 -0.16636055707931519 0.050121042877435684 -0.003723688656464219 -0.05462970584630966 -0.004276589956134558 -0.27028483152389526 0.31775057315826416 0.27374646067619324 -0.06611353904008865 0.31891652941703796 -0.1230362132191658 -0.12820814549922943 -0.035012584179639816 0.12408000230789185 0.29169610142707825 0.0019160481169819832 -0.07616444677114487 -0.025960218161344528 0.022462474182248116 0.10334671288728714 -0.10467984527349472 -0.269537091255188 0.027475979179143906 0.07052124291658401 0.1770707070827484 -0.04396992176771164 -0.044671107083559036 0.02205747552216053 -0.019015146419405937 0.15097881853580475 -0.12139502912759781 -0.0694751963019371 -0.2085830569267273 0.15086901187896729 0.08376181870698929 -0.05333227664232254 -0.22678884863853455 -0.08391371369361877 0.008615517057478428 0.09706614166498184 0.13641534745693207 
👔 -0.04363442212343216 0.0787736102938652 0.15031498670578003 0.05037525296211243 -0.25925543904304504 0.19886653125286102 -0.036487478762865067 -0.2459062784910202 -0.2241426408290863 0.06401701271533966 0.0782775804400444 0.2338978350162506 0.3100634217262268 0.24070784449577332 0.0887434184551239 -0.045104291290044785 -0.2984635531902313 0.32007625699043274 -0.3001595139503479 -0.1349274218082428 -0.14600539207458496 -0.055783964693546295 0.2759718894958496 0.013719410635530949 -0.40682730078697205 -0.2118205577135086 -0.06476447731256485 0.1261916309595108 -0.3885522186756134 -0.56614089012146 -0.2535490095615387 0.29308849573135376 -0.11475624144077301 0.21284006536006927 -0.13243262469768524 -0.15832844376564026 -0.2472582459449768 0.04580375552177429 -0.3633057177066803 -0.3481430113315582 0.2268778532743454 -0.005971160717308521 -0.12548977136611938 -0.014431512914597988 -0.11773681640625 -0.3328002393245697 -0.06199439615011215 -0.027947191148996353 -0.11935372650623322 0.029306046664714813 -0.24580727517604828 -0.02890780381858349 0.05030537769198418 -0.018200993537902832 -0.41443148255348206 0.04572504758834839 0.20895279943943024 -0.02574734576046467 -0.4133528470993042 0.34086358547210693 -0.056166183203458786 -0.09492199867963791 0.5031716227531433 0.0904800221323967 -0.2597416043281555 -0.058115627616643906 0.10881396383047104 0.2707822918891907 -0.12422530353069305 0.009949170053005219 0.026837851852178574 0.15551543235778809 0.11051909625530243 0.28752607107162476 -0.1279262751340866 0.03560221940279007 0.24581319093704224 0.15628059208393097 -0.31028470396995544 -0.23904135823249817 -0.31533414125442505 -0.225650355219841 -0.14762726426124573 -0.3029131591320038 -0.20774629712104797 0.1369028389453888 -0.4565744698047638 0.31418150663375854 -0.09768205136060715 -0.14813336730003357 0.05100709944963455 0.16542229056358337 0.14045540988445282 0.007474450394511223 -0.14973141252994537 -0.16510942578315735 0.020984109491109848 0.07331325113773346 0.04582905024290085 0.08827623724937439 
🌀 0.09279715269804001 0.11833798885345459 -0.2765153646469116 -0.28958338499069214 0.10400477796792984 0.05797133222222328 0.09335000813007355 0.038845255970954895 0.005946584511548281 -0.008681432344019413 0.36739227175712585 0.07402841001749039 0.5985336899757385 -0.13067546486854553 0.05245642736554146 -0.12050219625234604 0.2938555181026459 -0.1696455031633377 -0.04681055247783661 0.24003084003925323 -0.1878882348537445 -0.18766812980175018 -0.46787598729133606 0.3591024875640869 0.3478333652019501 0.26360559463500977 -0.20913515985012054 0.19777816534042358 0.03750096261501312 0.183761328458786 -0.3501284122467041 -0.26612961292266846 0.12384908646345139 0.1800115555524826 -0.29833361506462097 0.12235754728317261 0.007195211946964264 -0.2953246533870697 -0.15371094644069672 -0.05249743536114693 0.04106144607067108 -0.24331656098365784 0.05667119845747948 -0.6731191277503967 -0.24979865550994873 0.27519798278808594 -0.06999275088310242 -0.06534749269485474 -0.13126523792743683 0.0769072100520134 -0.19881455600261688 0.044099364429712296 0.1509513109922409 -0.20355486869812012 0.4446575939655304 -0.16764742136001587 -0.2918270230293274 -0.006604540627449751 -0.04742057994008064 -0.2545235753059387 -0.33763745427131653 0.34823885560035706 -0.5639216303825378 0.13319475948810577 0.1682346910238266 0.10946716368198395 0.09195730090141296 -0.05627856031060219 0.0010489471023902297 -0.11150477081537247 -0.1493925005197525 0.6005308628082275 0.08435307443141937 -0.23293358087539673 -0.22416602075099945 -0.35175657272338867 0.22098933160305023 0.24687425792217255 -0.021631062030792236 0.11894331127405167 -0.2745802104473114 -0.17634032666683197 0.42725738883018494 -0.1377849131822586 -0.2903313636779785 -0.15986964106559753 0.3544407784938812 0.2791024446487427 -0.2158505916595459 -0.3973383605480194 0.27052372694015503 0.09723668545484543 0.21308006346225739 -0.3022680878639221 -0.3345908224582672 -0.11624342948198318 -0.08209849148988724 0.5867289900779724 -0.0537375882267952 -0.40681663155555725 
🚾 -0.36984550952911377 0.4521586298942566 0.5283893942832947 0.10685873031616211 0.12068169564008713 0.24503318965435028 -0.3446403741836548 0.4107326865196228 0.33721664547920227 0.39886465668678284 0.0181414894759655 0.08766759932041168 0.5004443526268005 -0.41689565777778625 -0.0843450203537941 0.5076765418052673 -0.06371720880270004 -0.35440507531166077 0.046871721744537354 0.16249248385429382 -0.21002297103405 0.01765110157430172 0.2711072862148285 0.38028159737586975 0.2079375982284546 0.017240529879927635 0.487536758184433 -0.03691525757312775 0.5426783561706543 0.4469001293182373 -0.2865781784057617 -0.183611199259758 0.11856770515441895 0.14564670622348785 -0.17678526043891907 0.15575961768627167 0.25917479395866394 0.45404648780822754 -0.13708823919296265 0.35553425550460815 0.25923943519592285 0.17492234706878662 -0.04420001432299614 -0.4938831627368927 0.08041662722826004 -0.4031566083431244 -0.021314144134521484 0.04241259768605232 -0.06269426643848419 -0.13459903001785278 0.20314845442771912 0.01949366182088852 -0.10629193484783173 0.13734333217144012 -0.35623303055763245 -0.0577605701982975 0.09543833881616592 -0.062454767525196075 -0.2934925854206085 0.4581029713153839 -0.27411943674087524 -0.3196133077144623 0.12298260629177094 -0.5609816312789917 0.0003603379300329834 0.13499945402145386 0.2563481330871582 -0.15706183016300201 -0.10644319653511047 0.38660791516304016 -0.46609368920326233 0.16382096707820892 0.3091183304786682 0.4568958282470703 -0.2702239751815796 0.307013601064682 -0.5133073925971985 0.16227829456329346 -0.3117501735687256 0.2031126171350479 -0.44819703698158264 -0.2466488927602768 -0.21825814247131348 -0.321194589138031 -0.014957968145608902 0.08201170712709427 -0.24186299741268158 0.1971338540315628 0.0642930343747139 0.4269462525844574 -0.13271166384220123 0.07134752720594406 -0.22477158904075623 0.09533177316188812 -0.05620535835623741 -0.2093985229730606 0.2104894071817398 -0.1194772869348526 0.27329176664352417 -0.17307987809181213 
👹 0.2198130488395691 0.22437170147895813 -0.2677658200263977 0.24065330624580383 -0.21811512112617493 -0.06080016493797302 -0.012305895797908306 0.28784459829330444 -0.145503431558609 0.304086297750473 0.09860450774431229 0.23940332233905792 0.27949607372283936 0.22026777267456055 0.2455410659313202 -0.08034506440162659 0.2842291593551636 -0.406693696975708 0.11701113730669022 0.05076242610812187 -0.09843122959136963 -0.15324020385742188 0.20517604053020477 -0.2733546495437622 0.3597108721733093 -0.13958582282066345 -0.17226193845272064 -0.3380558490753174 -0.016749443486332893 0.26504239439964294 -0.3426368534564972 -0.13130922615528107 0.20281636714935303 0.11959710717201233 -0.44413378834724426 0.46045324206352234 0.09838420152664185 -0.09028702229261398 -0.32053491473197937 0.32465440034866333 0.12524689733982086 0.10148884356021881 -0.14756372570991516 0.2674541473388672 0.23009377717971802 0.2507932186126709 -0.4712830185890198 0.06958168745040894 -0.003965114708989859 -0.17938698828220367 -0.198794424533844 0.2129584103822708 0.1709478348493576 0.4035673141479492 0.27061501145362854 -0.37821853160858154 0.01547980960458517 0.2995664179325104 0.06707477569580078 0.14166641235351562 -0.22588291764259338 -0.09950907528400421 0.598418653011322 -0.005121272522956133 -0.4727324843406677 -0.014398455619812012 0.15820308029651642 -0.18894346058368683 -0.10068843513727188 0.48135998845100403 -0.21045561134815216 0.31205400824546814 -0.6572903394699097 0.009847883135080338 0.18025732040405273 0.1996159553527832 -0.32804813981056213 0.17408685386180878 -0.2601699233055115 -0.3283078074455261 -0.257109135389328 0.13846443593502045 0.07936207205057144 0.4176417887210846 -0.09248396754264832 0.14926832914352417 -0.4365593492984772 -0.5631625652313232 -0.2536011040210724 0.033387087285518646 0.010879184119403362 -0.09793851524591446 -0.1003102958202362 0.38938477635383606 0.22704562544822693 0.27905532717704773 0.5527865290641785 0.07496139407157898 0.41304081678390503 -0.017137596383690834 
🚻 0.5568224191665649 0.35637515783309937 0.15464594960212708 -0.08435720205307007 -0.290692001581192 -0.2933022081851959 -0.1561933010816574 0.253267765045166 0.05338994786143303 0.43237414956092834 -0.0996805801987648 0.3213575780391693 0.25488585233688354 -0.1439754068851471 -0.12463277578353882 0.00953265093266964 0.013201776891946793 -0.41448739171028137 0.216236412525177 -0.11222241818904877 0.2706208825111389 0.14516031742095947 -0.162291020154953 0.006078725680708885 -0.431598424911499 -0.14717313647270203 0.1585339605808258 -0.15169355273246765 -0.05969155207276344 0.2920021712779999 -0.1660757213830948 -0.10859585553407669 -0.3370497524738312 0.19826874136924744 0.024569982662796974 0.13216575980186462 0.2551268935203552 0.21531009674072266 0.05474161356687546 -0.07197768241167068 -0.12933099269866943 0.2661534249782562 0.18874657154083252 -0.3216853141784668 -0.02094508521258831 -0.28263288736343384 0.04606063663959503 0.4837934970855713 -0.25777778029441833 0.21138983964920044 -0.004934292286634445 -0.06213129311800003 -0.10415289551019669 -0.18892015516757965 -0.08928849548101425 0.15383587777614594 -0.31513839960098267 0.3320876657962799 -0.1049329936504364 -0.003005662001669407 0.040646184235811234 0.04547992721199989 0.0348486490547657 -0.5021864175796509 -0.17846228182315826 0.4329962134361267 0.13289552927017212 -0.20385316014289856 -0.19412530958652496 0.39611661434173584 -0.503538966178894 -0.09580659121274948 0.6250596642494202 -0.24762099981307983 0.058523669838905334 -0.34183213114738464 -0.1658768206834793 -0.3575347363948822 -0.1866350769996643 0.033203836530447006 -0.4379456341266632 0.005613388027995825 0.11962318420410156 -0.1430405080318451 -0.032921046018600464 -0.018975185230374336 -0.505105197429657 0.27934548258781433 -0.29691383242607117 0.1440277099609375 0.1650245189666748 0.12007129192352295 -0.1485566645860672 -0.03292510658502579 0.14525969326496124 0.1712603121995926 0.703069806098938 -0.004778606817126274 0.07381102442741394 -0.1311054676771164 
👬 0.09192725270986557 0.1109476163983345 -0.19355712831020355 0.057856664061546326 -0.03973214700818062 0.030007779598236084 -0.10524994879961014 0.43381068110466003 -0.009226685389876366 0.19352680444717407 0.20675429701805115 -0.11250833421945572 0.2586313486099243 0.3384069502353668 0.2976778745651245 0.19026170670986176 -0.35549822449684143 -0.41356101632118225 -0.1500033587217331 0.24465176463127136 0.38467007875442505 0.6353480815887451 0.1129731684923172 -0.18274110555648804 -0.09624700248241425 -0.39337867498397827 0.20867908000946045 0.049033813178539276 -0.19567550718784332 -0.19189414381980896 -0.12012452632188797 -0.22861723601818085 -0.1046680435538292 0.34432196617126465 0.27305158972740173 0.1581013798713684 0.03010926954448223 0.3816278874874115 0.3474552035331726 -0.389007568359375 0.07404665648937225 -0.12532974779605865 0.28163275122642517 -0.01441018283367157 -0.15240077674388885 -0.22809278964996338 0.2589513659477234 -0.16259688138961792 0.12630431354045868 -0.38583138585090637 -0.5141922831535339 0.07134301960468292 0.3294578492641449 -0.3217315971851349 0.17691923677921295 0.11718274652957916 -0.4596526324748993 0.0574665367603302 0.11319965124130249 0.08095186203718185 -0.05425563082098961 -0.2112654149532318 -0.3115082085132599 -0.33380579948425293 0.015360482037067413 0.216596320271492 0.13529637455940247 0.15790536999702454 -0.2225983887910843 0.16582299768924713 0.1280621439218521 0.20242545008659363 0.12704159319400787 0.07415827363729477 -0.023637408390641212 0.01892855390906334 -0.20559915900230408 -0.534135103225708 -0.2726011276245117 -0.1984071433544159 -0.5012271404266357 -0.5495464205741882 -0.1847810447216034 0.0068489727564156055 -0.1062418520450592 -0.18443267047405243 -0.7105593681335449 0.6229656934738159 -0.11358540505170822 0.5162453055381775 0.09546685963869095 -0.1358296424150467 -0.6519428491592407 0.6710109710693359 0.22581680119037628 -0.3677566647529602 -0.12243712693452835 -0.26425978541374207 0.42798882722854614 -0.5510380864143372 
🇫🇯 -0.0020819699857383966 0.0027237662579864264 0.022752495482563972 -0.031384773552417755 0.10492955893278122 -0.2387794852256775 -0.24870042502880096 0.09699703007936478 0.008944563567638397 -0.10102841258049011 0.05378885194659233 0.033986520022153854 0.08202414214611053 -0.0770895779132843 0.02695021778345108 -0.0390617810189724 0.08692046999931335 -0.17307154834270477 -0.007340648211538792 0.34486526250839233 -0.07657475769519806 -0.12122812122106552 0.0016496101161465049 0.05035185068845749 -0.159974604845047 -0.08108063787221909 0.003382550086826086 -0.20820367336273193 -0.0332954078912735 0.015462549403309822 -0.08265363425016403 -0.031457412987947464 -0.10184171050786972 0.042507417500019073 -0.19617460668087006 -0.09391937404870987 0.19402354955673218 -0.10220913589000702 -0.07029515504837036 0.10490748286247253 -0.013785548508167267 -0.020054806023836136 0.09301978349685669 -0.3284790813922882 0.008364635519683361 -0.08612147718667984 -0.06147928908467293 -0.008172092027962208 -0.0027998914010822773 -0.3341502547264099 0.04199816659092903 -0.21957089006900787 0.2110440731048584 0.014379390515387058 -0.18016713857650757 0.016931017860770226 -0.11317218095064163 0.07653586566448212 -0.22893069684505463 0.021193640306591988 0.22014835476875305 0.03279566392302513 -0.03244783729314804 0.08969631046056747 -0.13636642694473267 0.229140505194664 -0.08462969213724136 -0.027970435097813606 0.11980694532394409 -0.03682037815451622 -0.0619942881166935 0.1370815634727478 0.18458214402198792 0.1198834478855133 -0.15757937729358673 -0.05285205319523811 0.14683455228805542 0.003273207228630781 0.07540807873010635 -0.09834399074316025 -0.1979796439409256 0.01855568401515484 -0.08307988941669464 0.21139799058437347 0.1166144385933876 0.03257516026496887 -0.2752677798271179 -0.1036432608962059 -0.31420788168907166 0.1272585242986679 0.1578201800584793 0.20482321083545685 -0.019329281523823738 0.15657629072666168 -0.17722705006599426 -0.2533056437969208 0.021723667159676552 0.1246340274810791 0.21304167807102203 -0.02231096662580967 
🎧 -0.17516154050827026 -0.12114876508712769 -0.4717775285243988 -0.4564058184623718 0.022861845791339874 0.11864135414361954 -0.1503198891878128 0.09025257080793381 0.045510534197092056 0.2584429383277893 -0.14669108390808105 0.29296690225601196 0.2400638610124588 -0.07336144894361496 -0.12431125342845917 -0.34870174527168274 -0.15549607574939728 0.12371011823415756 0.37549257278442383 -0.0007679119589738548 -0.08852646499872208 0.3504655659198761 0.18566913902759552 0.3311190605163574 0.41499611735343933 -0.11378441751003265 0.024488115683197975 -0.345863938331604 -0.05059726536273956 -0.4576869010925293 -0.49660253524780273 -0.4985949397087097 -0.4084598422050476 0.05014475807547569 -0.18483619391918182 -0.08505237847566605 0.005698493216186762 -0.559097170829773 -0.4436289668083191 -0.3364666998386383 0.38688287138938904 0.19523051381111145 -0.15152761340141296 -0.1737174242734909 -0.23858213424682617 -0.09064806252717972 0.007025059778243303 -0.18824465572834015 -0.44432511925697327 -0.5781835317611694 0.1204487606883049 0.10496027022600174 0.07615545392036438 0.4165990650653839 0.39210963249206543 -0.13125762343406677 -0.2895151674747467 0.1708608865737915 0.6022420525550842 -0.5072587728500366 0.05920282006263733 -0.2930786609649658 -0.10039026290178299 -0.22906647622585297 0.055062200874090195 0.3004423677921295 -0.2514400780200958 0.1364915370941162 -0.36862069368362427 0.4397689700126648 0.3762214779853821 0.37506744265556335 -0.06235944852232933 0.15529294312000275 -0.077590212225914 -0.2615101635456085 0.21876882016658783 0.03222612291574478 -0.24530626833438873 -0.25991445779800415 -0.46889734268188477 0.0879303514957428 -0.22296062111854553 0.016491753980517387 0.058279480785131454 -0.09534856677055359 -0.36873212456703186 -0.2079666256904602 0.6248629093170166 0.1976427584886551 -0.2351120114326477 -0.022304002195596695 0.47086039185523987 0.2542699873447418 -0.42080962657928467 -0.27158716320991516 0.4460045397281647 0.2442627102136612 0.2322710156440735 -0.32732829451560974 
🐽 -0.060205355286598206 0.06640592962503433 0.18160338699817657 0.3040492832660675 -0.18521882593631744 -0.1566505879163742 -0.15221478044986725 0.14213789999485016 0.06577671319246292 0.4224475026130676 -0.189651757478714 0.008644705638289452 0.3184768557548523 -0.0028998374473303556 0.0010639141546562314 0.356112539768219 -0.10833922773599625 -0.012374556623399258 0.039802469313144684 0.10542500764131546 -0.030883941799402237 0.12299322336912155 -0.11294334381818771 0.16448843479156494 0.18098530173301697 -0.35656532645225525 -0.03480222076177597 -0.07537964731454849 -0.08591920137405396 -0.35995054244995117 -0.4935488700866699 0.33554214239120483 0.24589787423610687 0.02818259783089161 -0.24910111725330353 -0.359965443611145 0.30732855200767517 0.053811077028512955 -0.22177764773368835 0.2804991900920868 0.11335523426532745 0.21283258497714996 0.05455191060900688 0.16260536015033722 0.2854056656360626 0.13181854784488678 -0.08078274875879288 0.1646067202091217 -0.19541142880916595 -0.13364432752132416 -0.5982576012611389 -0.013473923318088055 -0.2155918926000595 0.05747252702713013 0.5845556855201721 0.22735358774662018 0.21162843704223633 0.5882051587104797 0.3948555290699005 -0.02736731246113777 -0.6544621586799622 -0.16188374161720276 0.4802648723125458 0.10868246108293533 -0.10119859129190445 -0.11368484795093536 -0.3787693381309509 -0.09652475267648697 -0.014194970019161701 0.14797598123550415 0.19487419724464417 0.29638636112213135 0.05736832320690155 0.23020148277282715 0.03906286880373955 0.25484564900398254 -0.3455539643764496 0.4173244833946228 0.07227280735969543 -0.10396914184093475 -0.3907237946987152 -0.0757727175951004 -0.41115301847457886 -0.15160006284713745 -0.377537339925766 0.30041584372520447 -0.5418376326560974 -0.019193345680832863 0.040903154760599136 0.2892342805862427 -0.04069925472140312 0.018490020185709 -0.08613123744726181 0.33516228199005127 0.10716980695724487 -0.2925609350204468 -0.044932469725608826 -0.2453448623418808 0.1515072137117386 0.13587595522403717 
🚜 0.27517154812812805 -0.014661561697721481 0.015433119609951973 -0.05504667013883591 0.07270009815692902 0.3040267825126648 -0.0650588646531105 -0.26176151633262634 0.22760902345180511 -0.018639637157320976 0.02533738687634468 0.23282085359096527 0.38204899430274963 0.3956141471862793 0.40347298979759216 0.09207301586866379 0.15045702457427979 -0.0888080894947052 -0.20507417619228363 -0.12606756389141083 0.1985485702753067 -0.14516602456569672 0.19925959408283234 0.22942860424518585 0.35986441373825073 -0.2548004686832428 -0.3394238352775574 0.20355629920959473 0.06269387155771255 0.012743804603815079 -0.23787765204906464 -0.10241708904504776 -0.30258533358573914 0.29243209958076477 0.0631740540266037 0.4197545647621155 0.22315309941768646 0.02018110454082489 -0.2401958703994751 -0.1751812845468521 0.46888062357902527 0.19317947328090668 -0.04830671846866608 -0.1773167997598648 -0.29174041748046875 -0.05038370192050934 -0.3704162836074829 0.24604372680187225 -0.17851522564888 0.03994135931134224 -0.15030699968338013 0.18596723675727844 0.0029644942842423916 0.17011712491512299 -0.18897223472595215 -0.21012039482593536 0.0790337324142456 0.25661739706993103 -0.38010790944099426 0.3343515992164612 -0.3224261701107025 -0.10461924970149994 0.036108244210481644 -0.004116194788366556 0.19800715148448944 0.01884058490395546 -0.012881356291472912 0.09384080022573471 -0.3717576265335083 -0.238386332988739 0.2304837703704834 0.41409218311309814 0.2552947700023651 0.31198379397392273 -0.2489122599363327 -0.2850276529788971 0.06017204001545906 0.35415104031562805 -0.2697318494319916 -0.4654861390590668 -0.26760706305503845 -0.05703924596309662 -0.12727031111717224 0.04362587630748749 -0.40419381856918335 -0.3007885217666626 -0.16415004432201385 -0.05661329999566078 0.22603517770767212 0.020682867616415024 0.013803818263113499 -0.3020932376384735 -0.04986261576414108 -0.30659353733062744 0.46147191524505615 0.11683399230241776 0.19755160808563232 -0.14125609397888184 0.14305171370506287 -0.36217355728149414 
♋ -0.16676536202430725 0.2559221386909485 -0.11030968278646469 -0.18990227580070496 -0.1645212322473526 -0.27442529797554016 -0.2172255963087082 -0.0916554257273674 -0.05045513063669205 0.157095268368721 -0.026195872575044632 0.03686482459306717 0.35159197449684143 0.5420389771461487 -0.2827654480934143 0.030046405270695686 -0.16388095915317535 0.014336190186440945 -0.004300829488784075 0.138270765542984 0.502950131893158 0.12309498339891434 -0.3293713629245758 -0.22143246233463287 -0.0365777388215065 -0.1727065145969391 0.4370018243789673 0.28096118569374084 0.3443298935890198 0.34782674908638 0.025309069082140923 -0.17750519514083862 -0.31597334146499634 0.2151474952697754 0.09008850902318954 -0.30909138917922974 0.3689422607421875 0.16768957674503326 -0.003702272428199649 -0.221378892660141 0.345597505569458 -0.5001707077026367 0.38084128499031067 -0.48335862159729004 -0.2505587041378021 -0.09383546561002731 -0.2079307585954666 -0.30794093012809753 0.10214520245790482 -0.06756354868412018 0.0937037244439125 0.24902690947055817 0.09925710409879684 0.009572125971317291 0.14128033816814423 -0.016002660617232323 0.10252119600772858 0.15973155200481415 0.2764851152896881 -0.6047831177711487 -0.24685229361057281 0.17359009385108948 -0.4596196115016937 -0.201027974486351 -0.21581748127937317 0.41280674934387207 0.4349651336669922 0.2543650269508362 -0.21721863746643066 0.14639239013195038 -0.016750900074839592 0.060836464166641235 0.3302317261695862 0.22321434319019318 -0.39553403854370117 -0.48209795355796814 0.15091760456562042 -0.36535578966140747 -0.2858133614063263 -0.11928854882717133 -0.30047330260276794 -0.26239511370658875 0.09566456079483032 0.11222242563962936 0.23408561944961548 0.4967549443244934 -0.6445528864860535 0.4028230905532837 -0.498281866312027 -0.24017545580863953 0.5205695033073425 0.20705638825893402 -0.04586939513683319 0.3411897122859955 0.20934565365314484 0.0507986955344677 0.6105973720550537 0.2468496859073639 -0.06386222690343857 0.1461346596479416 
🚭 -0.06090213358402252 0.23780079185962677 -0.2067318558692932 -0.28679749369621277 0.16310183703899384 -0.4351375997066498 -0.35552358627319336 -0.10313160717487335 -0.026784049347043037 0.3759530782699585 0.29569312930107117 -0.23690234124660492 0.2937104403972626 0.023136617615818977 0.2984282076358795 0.41449713706970215 -0.33415487408638 -0.15132424235343933 0.45331940054893494 0.17904821038246155 -0.1847439557313919 0.26208481192588806 -0.13314242660999298 0.3150501549243927 -0.20997148752212524 -0.6026978492736816 0.019287200644612312 0.05804815888404846 0.3511423170566559 -0.28500881791114807 -0.2752128839492798 -0.08496896177530289 0.027569202706217766 0.34830182790756226 -0.12839119136333466 -0.03855403885245323 -0.27174845337867737 0.015518585219979286 0.10552869737148285 0.38349366188049316 -0.21289555728435516 0.5375367403030396 0.1481919139623642 -0.16117170453071594 -0.20714373886585236 -0.3712388575077057 -0.05201523378491402 -0.07377824187278748 -0.53022700548172 -0.5237556099891663 0.010830194689333439 0.25653496384620667 -0.10615484416484833 0.40930354595184326 0.15942396223545074 0.049470674246549606 -0.23093515634536743 0.4265080988407135 0.44421103596687317 -0.06916139274835587 -0.5120580196380615 -0.030552176758646965 -0.22098463773727417 0.03005203790962696 0.15105734765529633 0.05727679282426834 0.13492301106452942 0.019547678530216217 -0.42874276638031006 0.3705187737941742 -0.022376930341124535 0.35648468136787415 0.2761305272579193 0.38348084688186646 -0.11445556581020355 0.4502039849758148 0.26607847213745117 -0.40899980068206787 -0.01553824171423912 -0.23452922701835632 -0.8127626776695251 -0.33438435196876526 -0.1274901181459427 0.06434844434261322 0.06835968047380447 -0.0891265869140625 -0.8407958149909973 0.13936540484428406 -0.18723399937152863 0.08929423987865448 -0.1853361427783966 0.15900510549545288 0.13624760508537292 0.32115912437438965 -0.2387995570898056 0.0864531546831131 0.07284422963857651 0.06589122116565704 0.18692991137504578 -0.3101002275943756 
🚷 0.2623097598552704 -0.3625611960887909 0.2085559070110321 -0.5300190448760986 -0.2182445377111435 0.11495468020439148 -0.05050951614975929 0.3569297194480896 -0.13007600605487823 0.41730377078056335 0.13118381798267365 0.03761008754372597 0.24555432796478271 0.05103779956698418 -0.38565200567245483 -0.027360400184988976 -0.4859773814678192 -0.35540086030960083 -0.010026917792856693 -0.014907981269061565 0.5801853537559509 0.2579531967639923 -0.0447295606136322 -0.3264976143836975 0.0375097282230854 -0.6124780178070068 0.0010522177908569574 -0.4489436447620392 -0.11749494075775146 0.24886973202228546 0.24340561032295227 0.014417444355785847 0.4652545750141144 0.02241571992635727 -0.16568972170352936 0.4323421120643616 -0.39101630449295044 0.13930664956569672 -0.0765262246131897 0.6511633396148682 0.10000012814998627 0.34938809275627136 0.24039793014526367 -0.18039904534816742 -0.29981207847595215 0.2882270812988281 0.2291887104511261 -0.010416188277304173 0.10851901769638062 -0.00691228499636054 0.009154739789664745 0.011835223063826561 0.34059011936187744 -0.04055634140968323 -0.10103366523981094 0.14221374690532684 -0.3005417287349701 0.24281945824623108 0.28280016779899597 -0.410000205039978 0.22839321196079254 -0.03698808327317238 -0.18074841797351837 -0.146640807390213 0.587066113948822 -0.03098135069012642 0.09078219532966614 -0.14151839911937714 -0.16659481823444366 0.3486526906490326 0.1276370882987976 0.2703094482421875 0.2331685870885849 -0.10751631110906601 -0.12687736749649048 -0.31963396072387695 0.3687456548213959 -0.27968305349349976 0.03724728524684906 -0.43364688754081726 -0.3853914439678192 -0.4435274600982666 0.005431816913187504 -0.29646608233451843 0.18954655528068542 0.059523262083530426 -0.23329436779022217 0.4397680163383484 0.45625048875808716 -0.2433493584394455 -0.16435930132865906 0.06068246439099312 -0.4446248710155487 0.07536258548498154 0.03921673074364662 -0.028525453060865402 -0.04743722826242447 0.06173192337155342 0.41004854440689087 0.23719927668571472 
📅 0.05112483724951744 0.1508672684431076 0.04345172271132469 -0.03837421536445618 0.21828100085258484 -0.020690592005848885 0.2054044008255005 0.0708431825041771 0.006109145004302263 0.17856131494045258 -0.19130921363830566 -0.237926185131073 0.2579902112483978 -0.11359062790870667 -0.10640063881874084 0.24558478593826294 -0.30581286549568176 0.14443334937095642 -0.12757359445095062 -0.35666927695274353 -0.0120536545291543 -0.31271088123321533 -0.27565544843673706 0.04147632047533989 0.01896422728896141 -0.3289131820201874 0.008281459100544453 -0.28741636872291565 0.45289045572280884 -0.20324735343456268 -0.36399927735328674 0.05651433765888214 0.11098100244998932 -0.0792626142501831 -0.06877198070287704 0.06543925404548645 0.15971480309963226 -0.2669048011302948 0.2448268085718155 -0.4840278923511505 -0.05472665652632713 -0.1937456876039505 0.390216588973999 -0.3161941468715668 -0.2939974367618561 -0.09601923078298569 -0.45288577675819397 -0.439999520778656 -0.16287699341773987 0.15557366609573364 -0.2455909103155136 -0.477051705121994 0.07562083750963211 -0.10863685607910156 0.5083015561103821 0.07375913113355637 -0.08048000931739807 0.13733825087547302 -0.33079156279563904 -0.4389744699001312 0.17236408591270447 -0.32432883977890015 0.44821906089782715 0.04088062047958374 -0.023803586140275 -0.07088339328765869 0.039996497333049774 0.02365901507437229 -0.2737555205821991 -0.1542057991027832 -0.1414494514465332 0.00857912003993988 0.23137973248958588 -0.10476471483707428 0.10533670336008072 -0.24928686022758484 -0.32355737686157227 -0.005953714717179537 -0.2873229682445526 0.09576504677534103 -0.18765993416309357 -0.513224184513092 0.12062709778547287 -0.011533466167747974 -0.019114837050437927 -0.08532711118459702 -0.3579188883304596 0.4903590977191925 0.22201068699359894 -0.23785653710365295 0.18929140269756317 0.20905695855617523 0.4866444766521454 -0.29413849115371704 0.13090026378631592 0.05237864702939987 0.30276504158973694 0.13758715987205505 0.2905222177505493 -0.4676927924156189 
💈 -0.2140980362892151 -0.04739563539624214 0.18570496141910553 0.058510132133960724 0.03295878693461418 -0.08619747310876846 -0.2557334303855896 -0.15260882675647736 -0.35661932826042175 0.026750391349196434 0.11850352585315704 0.007941406220197678 0.31041011214256287 0.03345590829849243 0.03066902793943882 0.35584360361099243 -0.4456656873226166 -0.08851427584886551 -0.04927727207541466 -0.3668868839740753 0.30647897720336914 -0.03947489708662033 0.09285116195678711 -0.35344889760017395 -0.15937812626361847 -0.21298600733280182 0.48533716797828674 0.025956813246011734 -0.032547008246183395 -0.17510482668876648 -0.022989556193351746 -0.1796364188194275 -0.1319158673286438 -0.15382419526576996 -0.018777640536427498 0.15892130136489868 0.012797534465789795 0.17192818224430084 -0.35530397295951843 0.1293698102235794 0.15368996560573578 0.2179582118988037 0.1237601488828659 0.3715968430042267 -0.11760160326957703 0.13774822652339935 0.05814614146947861 -0.3859056234359741 -0.0890568420290947 -0.09160224348306656 -0.23091813921928406 0.24912166595458984 -0.2197258174419403 0.3975932002067566 -0.19655810296535492 0.09773516654968262 -0.1909058541059494 0.14935123920440674 -0.13198153674602509 0.20951810479164124 -0.07264062017202377 -0.11311493068933487 0.4683346748352051 -0.22350315749645233 -0.15272703766822815 0.0346481129527092 0.1315235048532486 -0.069038525223732 -0.09859970211982727 0.07672910392284393 0.027660271152853966 0.30920854210853577 0.5247373580932617 0.22529929876327515 -0.06053544208407402 0.13486164808273315 0.32348352670669556 0.10006843507289886 -0.06693664938211441 -0.004819210153073072 -0.4137900471687317 0.11214161664247513 -0.1500987410545349 -0.4506399929523468 -0.24159450829029083 0.13348691165447235 -0.4122660458087921 0.024804554879665375 0.18882441520690918 -0.2318284660577774 -0.2637488842010498 -0.18608245253562927 -0.06368323415517807 -0.12782873213291168 -0.11182095110416412 -0.21671922504901886 0.317671537399292 0.27677080035209656 -0.07642310112714767 -0.03375516086816788 
✔️ -0.21942470967769623 0.17534254491329193 -0.18140818178653717 -0.2767418920993805 -0.005733196623623371 0.22841547429561615 -0.004533363506197929 0.012052202597260475 -0.10533114522695541 0.3180645704269409 0.02468794584274292 0.008674131706357002 0.19555078446865082 -0.2501349151134491 0.01600044034421444 -0.08036819100379944 0.09166155010461807 -0.057546183466911316 0.15396589040756226 -0.10162486135959625 -0.25804558396339417 0.04011538624763489 -0.161356583237648 -0.08528629690408707 -0.10743463784456253 -0.03180291876196861 -0.06613441556692123 0.06361120194196701 0.03167004883289337 0.08481971174478531 -0.09083663672208786 0.06432709842920303 -0.08671367913484573 0.1617909073829651 -0.06502742320299149 0.024371735751628876 -0.09061969071626663 -0.07739055901765823 -0.008194811642169952 -0.2741527557373047 -0.10914063453674316 0.0955367162823677 -0.24807822704315186 -0.07040618360042572 -0.03668225556612015 0.08966656774282455 -0.05149253085255623 0.014349681325256824 -0.1506282240152359 0.035228125751018524 0.014921141788363457 -0.22926469147205353 -0.03613242134451866 0.18471260368824005 0.12696853280067444 -0.13846999406814575 0.02805737406015396 0.08341412991285324 -0.11992878466844559 -0.18470172584056854 -0.11670182645320892 -0.10991363227367401 0.3057093322277069 -0.01899566873908043 0.22310826182365417 0.2723179757595062 0.052651893347501755 -0.162278950214386 0.2179902195930481 -0.09827680140733719 0.14252778887748718 0.08743837475776672 0.11353866010904312 -0.3385337293148041 0.05707146227359772 0.10918242484331131 0.1404261291027069 0.13250099122524261 -0.2457605004310608 -0.24644377827644348 -0.09683739393949509 0.15586605668067932 0.13416697084903717 -0.19163979589939117 -0.001673084101639688 0.25328153371810913 0.22957685589790344 0.2279086709022522 0.03420788794755936 -0.016384927555918694 -0.1370147317647934 0.004394908901304007 0.11159005761146545 -0.16199596226215363 0.02491685003042221 0.2724510431289673 0.15578612685203552 -0.20853905379772186 0.15555483102798462 -0.07677947729825974 
🙎🏼 0.23359178006649017 0.15162859857082367 0.03434000909328461 0.0021180775947868824 0.060444872826337814 0.07428164035081863 -0.0865025445818901 0.25829824805259705 -0.1591976433992386 0.0763644427061081 -0.20184282958507538 -0.11661093682050705 0.10702286660671234 -0.27040329575538635 -0.10892568528652191 0.12654916942119598 0.12356993556022644 -0.15982913970947266 -0.18152377009391785 -0.0030541610904037952 0.1831892877817154 0.15411889553070068 -0.2326907217502594 0.13818319141864777 0.18613596260547638 -0.3851504623889923 0.09871926158666611 0.09017938375473022 -0.07496623694896698 -0.06853598356246948 -0.0872790515422821 -0.05103500187397003 -0.1726432740688324 -0.09418625384569168 -0.2200494110584259 0.19368697702884674 0.041300252079963684 -0.11432645469903946 -0.2835346460342407 -0.1689416915178299 -0.13580121099948883 0.09055948257446289 -0.024014394730329514 -0.004253468010574579 -0.27079978585243225 -0.06283581256866455 0.044357046484947205 0.009894432500004768 -0.03683144971728325 -0.03333257511258125 -0.3006519079208374 -0.0680539533495903 0.15183134377002716 0.042862292379140854 0.0826682299375534 0.09524132311344147 -0.13742129504680634 0.05870279669761658 0.10715798288583755 0.131971076130867 0.13172972202301025 -0.062353186309337616 0.13010698556900024 -0.19541510939598083 0.2872597873210907 -0.11133135110139847 0.0256816316395998 0.11961980164051056 -0.051083751022815704 0.27584749460220337 -0.08764202147722244 -0.1551658660173416 0.11596304923295975 -0.041694413870573044 -0.03265172988176346 0.11911636590957642 -0.04258894547820091 0.14420965313911438 -0.1947193443775177 0.17355947196483612 -0.01342477835714817 -0.14097140729427338 -0.017096998170018196 0.0043088775128126144 -0.06883539259433746 0.049173664301633835 0.08583366125822067 0.0367904007434845 0.05336979404091835 0.021107099950313568 -0.001813068869523704 -0.046410076320171356 0.01807977631688118 0.07890740782022476 0.0808141678571701 -0.10767758637666702 0.024338722229003906 -0.16689418256282806 -0.12041265517473221 0.13843995332717896 
🍸 -0.0294124074280262 -0.1731988787651062 -0.3247644901275635 -0.16124160587787628 -0.13453294336795807 -0.30828025937080383 -0.3904902935028076 -0.3539666533470154 0.1689472198486328 0.12120286375284195 -0.4404771625995636 -0.4664839208126068 0.538516104221344 -0.14663589000701904 0.07603826373815536 0.20883452892303467 -0.2572070062160492 0.41491374373435974 0.32229089736938477 0.05257421359419823 0.27243295311927795 0.19015777111053467 -0.08628502488136292 -0.42988723516464233 -0.25064244866371155 -0.27714860439300537 -0.047826848924160004 -0.7123733758926392 0.3775950074195862 -0.11815821379423141 -0.1796894073486328 -0.026315486058592796 -0.3090909719467163 0.06818677484989166 -0.054008182138204575 -0.14925283193588257 -0.06793549656867981 -0.12072203308343887 0.019461825489997864 -0.0817604660987854 -0.01734505593776703 0.2714196443557739 -0.05154750868678093 0.0062451548874378204 -0.29686927795410156 -0.27969157695770264 0.07583640515804291 0.26495128870010376 -0.4043489992618561 -0.3137034475803375 -0.07876843214035034 -0.385953426361084 0.01797398366034031 0.022411122918128967 0.08032013475894928 -0.22271668910980225 0.14874985814094543 -0.30138352513313293 0.11964529007673264 -0.11859104037284851 -0.3438582420349121 -0.26239144802093506 0.03448949754238129 0.18016305565834045 0.45637375116348267 -0.1822172999382019 0.190185084939003 -0.2774786055088043 -0.5538052320480347 0.3668147325515747 -0.07321922481060028 -0.15609334409236908 0.07500795274972916 0.42736417055130005 0.018159223720431328 -0.14551371335983276 0.11926501989364624 -0.2780510187149048 0.32973358035087585 0.5864003896713257 -0.23385299742221832 0.2929534912109375 -0.008949085138738155 -0.11513382196426392 0.14311201870441437 -0.3247698247432709 0.25044864416122437 0.5721033215522766 -0.24418772757053375 0.4586920440196991 -0.35365915298461914 0.17461708188056946 -0.04029611870646477 0.26675307750701904 -0.6241015791893005 0.01880200393497944 0.10472601652145386 -0.28302183747291565 -0.18733634054660797 -0.1149081364274025 
🤷 0.07721687853336334 -0.12488337606191635 0.07385291904211044 -0.24369566142559052 -0.13183671236038208 0.08924631774425507 -0.17274881899356842 -0.06263841688632965 0.14055001735687256 0.07845303416252136 0.060696735978126526 -0.33244243264198303 0.35361796617507935 0.14409410953521729 -0.2352353185415268 -0.008218973875045776 -0.21823133528232574 0.30306893587112427 -0.17098744213581085 0.18799111247062683 0.14636804163455963 0.021421844139695168 -0.07863855361938477 -0.23851266503334045 -0.20978069305419922 -0.062384232878685 0.2875477373600006 -0.011043152771890163 0.018084978684782982 0.06937680393457413 -0.25466465950012207 0.25901883840560913 0.2490006536245346 0.16106368601322174 -0.23154817521572113 0.1583160012960434 -0.37746238708496094 -0.0007630055770277977 -0.15967166423797607 -0.15590158104896545 0.27541372179985046 -0.23501746356487274 0.19788336753845215 -0.09760958701372147 -0.2623955011367798 0.053339578211307526 -0.05361044779419899 -0.345511794090271 -0.13293035328388214 0.1374746859073639 0.007493898272514343 0.223517045378685 0.08477821946144104 0.0729077160358429 0.1291309893131256 0.011523537337779999 -0.3129820227622986 -0.1645108312368393 0.1474742442369461 0.11569575220346451 0.5227157473564148 -0.1497841626405716 0.26159584522247314 0.0021753672044724226 0.1692509800195694 -0.1618465632200241 0.2508360743522644 -0.09859214723110199 -0.0759546160697937 0.24542449414730072 0.02817976102232933 0.18444637954235077 0.017174655571579933 -0.13410866260528564 -0.23184005916118622 0.0722375363111496 0.2588806748390198 -0.06924368441104889 -0.3969058394432068 -0.14157786965370178 -0.4617413580417633 -0.2124055176973343 0.08499891310930252 -0.23372189700603485 -0.23368217051029205 -0.06203657016158104 0.2834008038043976 0.17493247985839844 0.07262822240591049 -0.00746671948581934 -0.1813894510269165 -0.054716043174266815 -0.011335653252899647 -0.186080664396286 -0.19152043759822845 -0.12762132287025452 -0.14347952604293823 -0.07489226013422012 0.21231773495674133 0.08007137477397919 
🌂 0.05038601532578468 0.07715455442667007 -0.1972821205854416 -0.01735891029238701 0.10018586367368698 0.2340031862258911 -0.05452436953783035 -0.0880400538444519 0.018106741830706596 0.09764306992292404 -0.1509205400943756 0.15304307639598846 0.5194113254547119 0.084270179271698 -0.16249412298202515 -0.007221267558634281 -0.06125449389219284 -0.04768216237425804 0.32282912731170654 -0.12476306408643723 -0.12893104553222656 0.27138471603393555 -0.07902979105710983 0.10771653056144714 0.2586553990840912 -0.15360817313194275 0.3814699053764343 0.2076806128025055 0.34692883491516113 0.42654138803482056 -0.688503086566925 0.1592264175415039 0.02965598739683628 0.594118058681488 0.048528220504522324 0.27851852774620056 -0.3719436228275299 0.03216579556465149 0.13468196988105774 0.21119417250156403 0.07766920328140259 -0.04316937178373337 0.015111368149518967 -0.16115644574165344 -0.18070363998413086 -0.18810488283634186 -0.0229839738458395 -0.29444822669029236 -0.3828146159648895 0.5067315101623535 -0.169005885720253 -0.029903853312134743 0.12408746778964996 -0.045740921050310135 -0.2499139904975891 0.1566268652677536 -0.01871945522725582 0.22108867764472961 0.005089036654680967 -0.4886620044708252 -0.25612905621528625 0.43766066431999207 0.11604680120944977 0.023559726774692535 0.05996327847242355 0.02684076502919197 0.11064978688955307 -0.3745184540748596 -0.020093027502298355 -0.18003976345062256 0.10745136439800262 0.5746661424636841 0.11771830916404724 -0.3670080602169037 0.1045694649219513 0.08914785832166672 0.0018645904492586851 0.20169954001903534 -0.6820486783981323 0.2920737564563751 -0.3925215005874634 -0.9086824059486389 0.17983245849609375 0.059060826897621155 -0.1122921034693718 -0.46675845980644226 0.2240290492773056 -0.04606034606695175 -0.02174879051744938 0.37058964371681213 -0.38603049516677856 0.1708681881427765 0.23667916655540466 0.05246010422706604 -0.5176683068275452 -0.6536965370178223 0.1512933224439621 -0.0839584544301033 -0.1904192864894867 0.056691765785217285 
🚓 0.5057192444801331 0.32435426115989685 -0.5736089944839478 -0.2686624228954315 -0.12300896644592285 -0.36397650837898254 0.2296450138092041 0.43668675422668457 0.05628987029194832 0.35554197430610657 -0.08691029995679855 0.13015314936637878 0.25541868805885315 0.5233551859855652 0.3241118788719177 -0.15060879290103912 -0.2161037176847458 0.06276138871908188 -0.5366586446762085 -0.0698593482375145 0.2193889319896698 -0.19796061515808105 -0.2304023653268814 0.09427637606859207 0.08777134865522385 -0.3659297823905945 0.05178869888186455 0.23136679828166962 0.042636752128601074 0.2730520963668823 -0.19321055710315704 -0.2649213969707489 -0.6485133767127991 0.7068203091621399 -0.01657678745687008 0.24706149101257324 -0.2656062841415405 0.24656428396701813 0.21728040277957916 0.17314426600933075 0.08385946601629257 0.5142807960510254 -0.032295070588588715 -0.5507566332817078 -0.15944717824459076 -0.38395562767982483 0.11937388777732849 -0.3400004804134369 0.029892582446336746 0.045676667243242264 0.04765370488166809 0.086314357817173 -0.1505924016237259 0.5026760697364807 -0.01302406657487154 0.04904354736208916 -0.24369142949581146 0.4465867877006531 -0.441222220659256 -0.21432678401470184 -0.055869210511446 0.1817302405834198 0.5848813652992249 0.3561077415943146 0.1484055370092392 0.1564600020647049 0.05208085849881172 -0.2487652450799942 -0.07531338930130005 -0.14749948680400848 0.14185023307800293 0.6128522157669067 0.35589924454689026 0.021062180399894714 -0.1997646689414978 -0.09078524261713028 -0.25427016615867615 0.09700021147727966 -0.2808952033519745 -0.0868900790810585 -0.510659396648407 -0.17384886741638184 0.17345502972602844 -0.35515883564949036 -0.14216476678848267 -0.08346998691558838 -0.35992324352264404 0.08840393275022507 0.20902344584465027 0.05752118304371834 -0.007451686076819897 0.12182772159576416 -0.3728964328765869 0.2489502727985382 -0.25919410586357117 0.3792608678340912 0.06909427046775818 -0.02143481746315956 0.16923971474170685 -0.31513532996177673 
🍤 0.13914167881011963 0.1620303839445114 0.021504176780581474 -0.07429642975330353 -0.23519611358642578 -0.05010271817445755 -0.07528799027204514 0.14246045053005219 0.057084664702415466 0.19781041145324707 -0.028034666553139687 0.12715165317058563 0.5669587254524231 0.0027680324856191874 -0.2999087870121002 0.007684255950152874 0.11342060565948486 -0.06918147951364517 0.002360575832426548 0.09246710687875748 0.16116292774677277 0.3403457701206207 -0.1668572723865509 -0.47051554918289185 0.19117672741413116 -0.15110526978969574 0.06147775799036026 -0.34814637899398804 0.023128952831029892 0.019012078642845154 -0.2957945168018341 -0.11962180584669113 -0.2710505723953247 -0.5424822568893433 -0.32485973834991455 -0.11233697831630707 0.3260321319103241 0.270457923412323 0.2762509286403656 0.06477537006139755 0.22262120246887207 0.16634562611579895 -0.27945494651794434 0.10220086574554443 -0.0015003838343545794 0.10817845910787582 0.18790481984615326 0.07504407316446304 -0.05859494209289551 -0.24902500212192535 -0.5050516128540039 0.060241296887397766 -0.11399019509553909 0.41414675116539 0.3645747900009155 0.03310505300760269 0.09258346259593964 -0.1426498144865036 0.2824626564979553 0.04525600001215935 -0.33965665102005005 -0.5050746202468872 -0.08601699769496918 0.09271802753210068 0.0879027470946312 -0.28949594497680664 -0.05745045840740204 -0.21644917130470276 -0.2238103598356247 -0.01729324460029602 -0.05284368246793747 0.038745418190956116 0.5399417877197266 0.09093833714723587 0.19744430482387543 -0.19633713364601135 -0.21074774861335754 -0.23689700663089752 0.09278960525989532 -0.11044134944677353 -0.48564547300338745 0.2706124186515808 -0.18360599875450134 -0.047680772840976715 -0.19089235365390778 0.31378230452537537 0.12574192881584167 -0.0023846321273595095 -0.19401784241199493 0.16528934240341187 -0.2299780398607254 0.19546450674533844 -0.13399635255336761 0.20344315469264984 -0.16000966727733612 0.1388067603111267 -0.03972170874476433 0.2277763932943344 -0.09257128834724426 -0.05843191593885422 
💘 -0.23092712461948395 0.21377679705619812 -0.03553555905818939 0.07461025565862656 -0.3493061363697052 -0.3054816424846649 0.06472373008728027 -0.2707826495170593 0.06724007427692413 0.3231373727321625 0.025902369990944862 0.29083219170570374 0.2155989110469818 -0.18989454209804535 0.11151263117790222 -0.2435886710882187 0.039457742124795914 0.058529119938611984 -0.3317468762397766 0.3981558382511139 0.10070781409740448 0.08871626108884811 -0.00378436129540205 -0.05363321676850319 -0.18632227182388306 -0.01833992823958397 0.018511198461055756 0.057969383895397186 0.18955914676189423 0.20073793828487396 -0.02436516433954239 -0.24336202442646027 0.0902772769331932 -0.21531713008880615 0.15217901766300201 0.1304379552602768 0.2751299738883972 -0.12381662428379059 -0.2507742643356323 0.209164097905159 0.05343497917056084 -0.2925746440887451 0.21790337562561035 0.1531471461057663 -0.07825598120689392 0.14808085560798645 -0.10496087372303009 -0.062365297228097916 -0.1200915053486824 -0.25215771794319153 -0.2888384461402893 0.1451430767774582 0.23213793337345123 -0.1175723522901535 0.22866150736808777 -0.24196717143058777 -0.1776283234357834 0.19470153748989105 0.18230709433555603 0.3205622136592865 0.021970072761178017 0.011042225174605846 -0.19743888080120087 -0.01808578334748745 0.09900850802659988 -0.10226556658744812 -0.20840729773044586 0.07383598387241364 0.06144145503640175 0.16926734149456024 0.2244565188884735 0.33078572154045105 -0.10493549704551697 -0.03607683256268501 0.031690992414951324 0.07651792466640472 -0.060782540589571 -0.10062532126903534 -0.1562798172235489 0.30168747901916504 -0.2743084728717804 0.08216915279626846 0.15167859196662903 -0.13666042685508728 -0.16602754592895508 0.1070718988776207 -0.09686008095741272 0.21139518916606903 0.08237133175134659 -0.1322759985923767 0.1321995109319687 -0.0006356596713885665 -0.020467747002840042 0.10676924884319305 0.2153121531009674 0.06508209556341171 -0.06338737905025482 -0.053927402943372726 -0.04877995327115059 0.13782469928264618 
🚔 0.3695104718208313 0.6641098260879517 -0.1882171779870987 -0.22421512007713318 -0.026250924915075302 -0.41428378224372864 0.3990480899810791 0.3131137490272522 0.08119788020849228 0.29618632793426514 0.14120164513587952 0.1258082538843155 0.2404542863368988 0.29132509231567383 0.36048629879951477 -0.3806878626346588 -0.39886781573295593 0.039760056883096695 -0.3534603416919708 -0.16980807483196259 -0.06145482137799263 -0.15021182596683502 -0.27023616433143616 0.1301896572113037 0.31280770897865295 -0.3969998359680176 -0.16985513269901276 -0.00808141753077507 -0.09087338298559189 0.35431116819381714 -0.11754176765680313 -0.49561598896980286 -0.6940003633499146 0.45724934339523315 0.19557014107704163 0.323417067527771 -0.14203079044818878 0.15357425808906555 -0.16685177385807037 0.4026976227760315 0.008410744369029999 0.5650997757911682 0.06462705880403519 -0.628544807434082 -0.11325614154338837 -0.19340521097183228 0.000500484777148813 -0.4100031852722168 -0.3892661929130554 0.07744196802377701 0.055244073271751404 -0.04712319001555443 -0.29164841771125793 0.5337803959846497 0.027093587443232536 -0.10421262681484222 -0.2166256457567215 0.5631930828094482 -0.3393085300922394 -0.45235878229141235 0.025931518524885178 0.1984500288963318 0.6955420970916748 0.2354263812303543 0.21231648325920105 -0.15940937399864197 0.14153142273426056 -0.3279688358306885 -0.21622183918952942 0.08394204080104828 0.16599945724010468 0.7589067816734314 0.4547594487667084 0.056738369166851044 -0.1274144947528839 0.14457803964614868 -0.4072217345237732 0.010026799514889717 -0.18964312970638275 -0.010939398780465126 -0.38575655221939087 -0.0149702038615942 0.23439928889274597 -0.17030206322669983 0.14310097694396973 -0.17361533641815186 -0.28078144788742065 0.231175497174263 0.18687337636947632 0.20567166805267334 0.1918429285287857 -0.019038980826735497 -0.17263123393058777 0.17787043750286102 -0.24150007963180542 0.12319736927747726 0.09037796407938004 0.08408911526203156 0.012110862880945206 -0.31928882002830505 
👚 0.12715747952461243 -0.31421348452568054 0.31043538451194763 0.09834010154008865 -0.3535526990890503 -0.16521839797496796 0.3036993741989136 0.2600681185722351 -0.06210003420710564 0.05913982167840004 -0.3751935362815857 0.26027074456214905 0.39571499824523926 0.4883763790130615 -0.11677666008472443 0.3755185008049011 -0.4102972745895386 -0.17796112596988678 -0.19131503999233246 -0.00044887326657772064 0.3463202118873596 -0.019931601360440254 -0.41959771513938904 -0.42420002818107605 -0.19241100549697876 -0.13760030269622803 0.0947413519024849 -0.20549078285694122 -0.26367175579071045 -0.2075488120317459 -0.07770750671625137 0.30721813440322876 -0.24986609816551208 0.2825271487236023 0.04433431848883629 -0.10152268409729004 -0.1536189168691635 0.07981902360916138 -0.591461718082428 0.2993231415748596 0.04183731973171234 0.12177473306655884 0.10893101990222931 0.2133055031299591 0.30162355303764343 -0.006093841046094894 0.10194945335388184 -0.10117446631193161 -0.483091801404953 0.1759524941444397 -0.6840475797653198 0.02686203271150589 -0.3182097375392914 -0.02587755210697651 -0.06209782138466835 0.2996559143066406 -0.0005020949756726623 0.009198092855513096 -0.4040723443031311 0.321942001581192 -0.17939896881580353 0.3116694390773773 0.6254466772079468 -0.2638748586177826 -0.2708306908607483 0.5002844333648682 0.19376210868358612 -0.5178779363632202 -0.08371628820896149 0.18479007482528687 -0.21451355516910553 -0.014588205143809319 0.6228429079055786 -0.10575622320175171 -0.40084823966026306 0.01841091737151146 0.19268836081027985 0.05484754592180252 -0.2054746299982071 -0.12349773943424225 -0.5609049797058105 -0.5764638781547546 -0.23806732892990112 -0.5200245976448059 -0.26578962802886963 0.618263304233551 -0.3798486292362213 0.3532677888870239 -0.2476331740617752 0.05965040996670723 0.1636745035648346 0.04426201060414314 0.2929079830646515 -0.19529038667678833 -0.25995299220085144 0.010453540831804276 0.04425676912069321 -0.40689390897750854 0.249695286154747 -0.6393663287162781 
🐧 0.2791477143764496 -0.17937833070755005 0.0848669707775116 -0.06294603645801544 0.0628213882446289 -0.220369353890419 0.17485187947750092 -0.3234322667121887 -0.13694070279598236 0.01716260239481926 -0.2565724849700928 -0.04583163559436798 0.32892102003097534 0.22780585289001465 -0.05485923960804939 0.026303822174668312 -0.2008902132511139 -0.06967828422784805 0.12078347057104111 -0.1776079684495926 0.29251551628112793 0.07668036222457886 -0.3777261972427368 -0.4061035215854645 0.042208481580019 -0.27074164152145386 0.17647874355316162 -0.016008472070097923 -0.2745423913002014 -0.1510830521583557 -0.1864263415336609 -0.16408056020736694 -0.04317209869623184 0.3525574803352356 -0.17675013840198517 -0.15430881083011627 0.4922446012496948 0.1310395449399948 -0.03432072326540947 -0.28644347190856934 0.31088951230049133 -0.05948682501912117 -0.16431327164173126 -0.1387321650981903 -0.1316152811050415 0.1238851249217987 -0.4486178457736969 -0.07267707586288452 -0.07391243427991867 -0.0499395877122879 -0.05838683247566223 -0.11070180684328079 -0.04872981831431389 -0.12462576478719711 0.31359410285949707 0.36013272404670715 0.0901481881737709 0.34959790110588074 0.20601581037044525 -0.048001911491155624 -0.059776078909635544 -0.2982087731361389 0.17967160046100616 0.016631225124001503 -0.07568015903234482 -0.4148031175136566 -0.45425403118133545 -0.03584224730730057 0.25035783648490906 0.21442939341068268 0.19278670847415924 0.22563999891281128 0.03855809569358826 0.10087595134973526 -0.034666843712329865 0.13021032512187958 -0.5183239579200745 -0.21083590388298035 -0.08080174028873444 -0.24416695535182953 -0.40169036388397217 -0.1349572241306305 -0.21330125629901886 0.1702590435743332 0.03296223282814026 -0.11017860472202301 0.06834583729505539 0.0405399464070797 0.14413560926914215 0.050051748752593994 0.07742992788553238 -0.15242405235767365 -0.05279126763343811 0.06960871070623398 0.29381561279296875 -0.09917382895946503 0.0716824010014534 -0.012683801352977753 0.22998422384262085 -0.08666346967220306 
🍥 -0.09602472186088562 -0.1779182106256485 -0.15686608850955963 -0.14014990627765656 -0.3929084837436676 -0.05065634101629257 0.07229184359312057 0.012653417885303497 0.1347530037164688 0.2854521572589874 0.22131973505020142 -0.16256147623062134 0.4735741913318634 0.38707682490348816 -0.19493073225021362 0.22289271652698517 0.30881059169769287 0.05123916268348694 -0.18905916810035706 0.3427552282810211 -0.07439113408327103 0.473020076751709 -0.5878823399543762 -0.02323226071894169 -0.011095520108938217 -0.15158933401107788 0.20015834271907806 -0.05260733515024185 0.2953396439552307 -0.047280870378017426 -0.39371925592422485 -0.02462429739534855 0.1793414205312729 -0.0531638041138649 -0.3380196988582611 -0.21272099018096924 0.13686205446720123 -0.050990231335163116 0.012192457914352417 0.07547780871391296 0.3049592077732086 0.05330011248588562 -0.37760162353515625 -0.16391269862651825 -0.05343375727534294 0.0055565545335412025 -0.17728212475776672 0.2476581335067749 0.06544439494609833 -0.05954201892018318 -0.21356871724128723 -0.17836213111877441 -0.015233404003083706 0.21181444823741913 0.5833860635757446 -0.4462645649909973 0.3936181664466858 -0.08985096216201782 0.276912659406662 0.14563366770744324 -0.6244604587554932 -0.45777052640914917 -0.12894776463508606 0.3310655355453491 -0.025818953290581703 -0.29141417145729065 -0.016734454780817032 -0.4525798261165619 -0.117766834795475 -0.1498989462852478 -0.10116755962371826 -0.07695266604423523 -0.18970175087451935 0.1586676836013794 -0.08396033197641373 -0.3217759132385254 -0.33488860726356506 0.015889953821897507 0.11006759107112885 0.23034922778606415 -0.438295841217041 0.3333323895931244 -0.1990424543619156 -0.3164266347885132 -0.1131744310259819 -0.2558421194553375 0.19954150915145874 0.04139694944024086 -0.32062816619873047 -0.1341492384672165 -0.04170764982700348 0.21159018576145172 -0.3979235887527466 0.08429868519306183 -0.08464508503675461 0.11660364270210266 -0.04179800674319267 0.36479535698890686 -0.45688071846961975 -0.007559898309409618 
🍵 -0.2975609004497528 -0.059737276285886765 0.17942079901695251 0.2143583595752716 0.06901030242443085 -0.24941298365592957 -0.14443953335285187 -0.27144819498062134 0.36683812737464905 0.2088903933763504 -0.4595220685005188 -0.6299028396606445 0.3598449230194092 -0.056011661887168884 0.09498689323663712 0.026089726015925407 0.21030189096927643 0.051894064992666245 0.1974114328622818 -0.03680761530995369 0.11245536059141159 -0.08302351087331772 -0.10780642181634903 0.23219211399555206 0.09513126313686371 0.1580604612827301 0.08492583781480789 -0.034876104444265366 0.25512054562568665 -0.09806573390960693 -0.14956220984458923 0.06987813860177994 -0.34791454672813416 0.30047786235809326 -0.2991911768913269 0.06240628659725189 0.3076993525028229 -0.26580294966697693 0.16181202232837677 0.21869240701198578 -0.019334841519594193 0.08328725397586823 -0.12539538741111755 0.00032627637847326696 -0.25851377844810486 0.3827575445175171 -0.09894534200429916 0.22896811366081238 -0.2888108491897583 -0.04976831004023552 -0.27859726548194885 -0.2380746752023697 0.11529895663261414 -0.17506512999534607 -0.1293632984161377 -0.0035613097716122866 0.1751818209886551 0.05206754803657532 0.20769158005714417 0.14508894085884094 -0.04359292984008789 0.013989831320941448 -0.29909437894821167 0.1249602660536766 0.09969928860664368 -0.1658341884613037 -0.05083660036325455 0.2881646156311035 -0.1100243553519249 0.4700210690498352 0.28073611855506897 -0.1453656405210495 0.2888389825820923 0.12023510783910751 -0.2677539587020874 0.06564489752054214 -0.0740458071231842 -0.1103932112455368 -0.27645954489707947 0.011973800137639046 -0.1608589142560959 -0.09050717204809189 -0.307239830493927 -0.36536017060279846 0.23421159386634827 0.03333553671836853 -0.36375704407691956 0.4266815781593323 -0.34191423654556274 0.5348564386367798 0.07467442005872726 0.24186450242996216 -0.07567282766103745 0.23901459574699402 -0.09424107521772385 0.10056932270526886 -0.16843199729919434 -0.08303993940353394 -0.2786215543746948 0.10066858679056168 
✂️ -0.11553380638360977 -0.1396109163761139 -0.024459805339574814 -0.011441434733569622 -0.24201235175132751 0.22408683598041534 -0.27262401580810547 0.055897872895002365 -0.033243197947740555 0.43324893712997437 0.12605613470077515 -0.03972430154681206 0.3223356306552887 -0.03539431840181351 -0.1510327011346817 0.024339091032743454 -0.44920843839645386 0.0015879662241786718 -0.12443055957555771 0.029371339827775955 -0.20693740248680115 0.16228696703910828 0.31735026836395264 0.12888211011886597 -0.08954659104347229 -0.13783854246139526 0.11195174604654312 0.17204464972019196 0.16754217445850372 -0.1292703002691269 0.10563015192747116 -0.4602868854999542 -0.13170620799064636 0.2813364565372467 -0.27426108717918396 -0.04343632981181145 0.08135775476694107 0.03523847833275795 -0.11173736304044724 0.18114757537841797 0.030219975858926773 0.11593206971883774 -0.1830846518278122 0.27255332469940186 -0.07311707735061646 -0.08382907509803772 -0.27092596888542175 -0.19580061733722687 -0.1295955926179886 -0.33685314655303955 -0.17619433999061584 0.27354612946510315 -0.25433480739593506 0.10731959342956543 0.04174650460481644 -0.31511399149894714 -0.25950780510902405 0.021639684215188026 0.05995509400963783 0.01585564948618412 0.04333312064409256 -0.17234936356544495 -0.05974848195910454 -0.0716678649187088 -0.09670960158109665 0.12751135230064392 0.06594820320606232 -0.08585859090089798 0.12072638422250748 -0.24621455371379852 -0.27681827545166016 0.47547996044158936 0.056375447660684586 0.210262730717659 0.2400529384613037 0.2793784439563751 0.23973627388477325 -0.19135600328445435 -0.29342901706695557 -0.20977334678173065 -0.24410425126552582 0.06308259069919586 -0.18518716096878052 -0.0394674688577652 -0.17014101147651672 -0.08236038684844971 -0.22569707036018372 0.13322794437408447 0.21221259236335754 -0.07143472880125046 -0.17571088671684265 0.08956510573625565 -0.07173000276088715 0.24209024012088776 -0.3743595480918884 -0.052378419786691666 -0.41812005639076233 0.10275279730558395 -0.07288046181201935 -0.0047842455096542835 
👓 0.3669131398200989 -0.031099991872906685 -0.24485523998737335 0.34820008277893066 -0.06026189401745796 0.0061423201113939285 -0.14411555230617523 -0.38125577569007874 -0.3506399393081665 0.7553543448448181 0.1124819666147232 -0.6754063367843628 0.3834831118583679 0.06154809519648552 -0.26167839765548706 -0.0037201123777776957 -0.08888034522533417 -0.10241367667913437 0.23098433017730713 0.2388564646244049 0.3258861005306244 -0.15928347408771515 0.3415205776691437 -0.06545239686965942 -0.39073050022125244 -0.14162814617156982 0.0003054821863770485 -0.23603986203670502 -0.1843765676021576 -0.17347586154937744 -0.499745637178421 0.17531225085258484 -0.06595887243747711 -0.042275507003068924 0.026636214926838875 -0.15027232468128204 0.04403665289282799 -0.3360961377620697 -0.27181175351142883 0.3540523946285248 0.4080919921398163 0.14981819689273834 0.16068467497825623 -0.4489736258983612 -0.33442696928977966 0.1198013424873352 -0.022593963891267776 -0.3833276927471161 0.17935973405838013 -0.0010372697142884135 -0.10567429661750793 -0.2785986661911011 0.12147098779678345 0.16737551987171173 0.5820844173431396 0.22752226889133453 -0.5804405212402344 0.12738396227359772 -0.372298002243042 -0.4125312566757202 0.22775092720985413 -0.17628033459186554 0.502406895160675 -0.33782315254211426 0.07296140491962433 -0.01616785116493702 0.19615697860717773 -0.3678971230983734 -0.3411211669445038 0.027074605226516724 0.043676648288965225 0.46948593854904175 0.1731497049331665 -0.1009734570980072 -0.2684871554374695 0.0710972249507904 0.4181516468524933 0.21013906598091125 -0.378115177154541 -0.08714853972196579 -0.25844332575798035 -0.0579870231449604 0.12528859078884125 -0.12091901898384094 0.08802323043346405 -0.1415622979402542 0.07844862341880798 0.03085380792617798 -0.34979185461997986 -0.005534784402698278 0.4805845022201538 0.25017914175987244 0.4882493019104004 -0.2519972026348114 0.09508223831653595 -0.49849048256874084 0.3999496102333069 -0.2957078218460083 0.5417574644088745 0.20206235349178314 
⛔ -0.05783306434750557 -0.07789424061775208 0.1390947699546814 -0.15567296743392944 -0.3139094114303589 -0.0018710884032770991 0.24674998223781586 -0.05012756586074829 -0.12356679141521454 0.014438031241297722 -0.2952558696269989 -0.1747911423444748 0.20945918560028076 0.07325481623411179 -0.12885743379592896 0.06495700776576996 -0.24026857316493988 0.19420140981674194 0.04312223941087723 0.08141393959522247 0.23739758133888245 0.18598215281963348 -0.2099151760339737 0.2235356718301773 -0.24263207614421844 -0.42580902576446533 0.18410444259643555 -0.33862829208374023 0.09129109233617783 0.0510542094707489 -0.10434045642614365 0.20503292977809906 -0.1009567528963089 -0.09628113359212875 0.0876317173242569 0.05049406737089157 0.026249898597598076 0.08280535042285919 -0.20269113779067993 -0.034417442977428436 -0.18942993879318237 0.1346113234758377 0.11626715213060379 0.09882879257202148 -0.2181236743927002 -0.14844882488250732 -0.34395933151245117 -0.02652543969452381 -0.19882966578006744 0.16195155680179596 -0.05432836711406708 -0.05461697280406952 -0.2258644849061966 -0.022426346316933632 0.05069008842110634 0.06269145756959915 0.09170504659414291 0.1201641708612442 -0.034817807376384735 0.0642930269241333 0.1720534861087799 -0.05653510242700577 0.20990705490112305 0.21467149257659912 0.26426586508750916 -0.23488174378871918 0.1065099686384201 -0.1674143373966217 -0.14435040950775146 0.15270178020000458 0.0006356611847877502 0.10782047361135483 0.21187104284763336 -0.13279877603054047 0.3037075698375702 -0.1106237843632698 0.16656574606895447 -0.09656403958797455 -0.24734923243522644 -0.08264777064323425 -0.20212487876415253 0.07077017426490784 -0.024540157988667488 -0.28621816635131836 0.004823764320462942 -0.0028807492926716805 -0.013344735838472843 0.10823506861925125 0.22865350544452667 0.04855908453464508 0.00314101530238986 0.2884300947189331 -0.22640766203403473 0.14891952276229858 -0.14585691690444946 0.20933179557323456 0.04401924088597298 0.22605592012405396 -0.014665285125374794 0.1607569307088852 
💂 -0.047451481223106384 0.3491137623786926 0.08642303198575974 -0.5347926616668701 -0.0667744129896164 -0.5352503657341003 0.12748616933822632 -0.01742173731327057 0.15041640400886536 0.0943937674164772 0.06690675020217896 0.17520417273044586 0.1933881789445877 -0.3370751142501831 0.578790545463562 0.2682870328426361 -0.09191612154245377 -0.3747178614139557 0.050902318209409714 0.30835431814193726 0.14591242372989655 0.19969740509986877 0.19644008576869965 -0.4098333716392517 0.020469803363084793 -0.056842174381017685 -0.0006023216992616653 -0.1573438048362732 -0.06717320531606674 0.4037710130214691 0.24461926519870758 -0.4696231186389923 -0.03197332099080086 0.20649489760398865 -0.06417178362607956 0.3959805369377136 0.31393733620643616 0.506963849067688 0.43679147958755493 -0.3008413016796112 0.368701308965683 -0.1796751618385315 0.14907564222812653 -0.3176373839378357 -0.045112356543540955 0.1709516942501068 0.03370092436671257 -0.17068076133728027 -0.15711209177970886 -0.3202800154685974 -0.1521444022655487 0.3640640676021576 0.08407244831323624 0.02269081026315689 -0.06565512716770172 -0.19584794342517853 0.13490405678749084 0.18126969039440155 0.035576678812503815 0.012737463228404522 -0.18048475682735443 0.17286249995231628 0.0009633424924686551 -0.23075467348098755 -0.06349754333496094 0.24654938280582428 -0.06436195224523544 0.18901126086711884 0.13004042208194733 0.21942469477653503 -0.11901897937059402 0.1572761982679367 0.08321806788444519 0.23313194513320923 0.01500419806689024 -0.03832675889134407 0.0319850891828537 -0.17296797037124634 -0.3906080424785614 0.31841352581977844 -0.3963182866573334 -0.6322600841522217 0.3479924201965332 0.2058330625295639 -0.3991485834121704 0.14433644711971283 0.24547460675239563 0.2736847698688507 0.6123937368392944 0.27861350774765015 -0.23902201652526855 -0.380088746547699 -0.3401481807231903 0.056004807353019714 -0.13654138147830963 -0.03570704162120819 -0.013547881506383419 0.5326720476150513 -0.07793193310499191 -0.17967811226844788 
🆔 0.2288123369216919 0.22443626821041107 -0.3413774371147156 -0.05663152411580086 -0.02090335451066494 -0.2653236985206604 0.10158087313175201 0.134661003947258 0.23335237801074982 0.42049986124038696 -0.4084351658821106 0.1412687748670578 0.35007476806640625 0.21681341528892517 -0.41403433680534363 -0.2293528914451599 -0.3118969798088074 0.08249635994434357 0.1667475700378418 -0.06900271773338318 0.0613945908844471 0.3370276987552643 0.06715547293424606 0.36761805415153503 -0.35644206404685974 -0.13607412576675415 0.10997096449136734 -0.13332872092723846 -0.04400097206234932 0.022963859140872955 0.06531192362308502 0.0799342468380928 0.08036656677722931 -0.1016298457980156 0.13542117178440094 -0.10766223073005676 -0.027677113190293312 -0.43163809180259705 0.24889320135116577 0.16823071241378784 0.17852544784545898 0.15836112201213837 -0.1989535689353943 -0.26566141843795776 -0.2148510366678238 -0.189469575881958 -0.139777272939682 -0.1222393661737442 -0.1696675717830658 0.09644043445587158 -0.06292456388473511 0.05564679950475693 -0.3945797383785248 0.2993818521499634 0.09095670282840729 0.2040180116891861 0.12861399352550507 0.09411551058292389 -0.28234562277793884 0.03731947019696236 0.10986918956041336 -0.01675594411790371 0.054987795650959015 0.2455897331237793 -0.20889456570148468 0.22693340480327606 -0.4541260600090027 -0.055605605244636536 -0.2553713917732239 -0.01275670900940895 0.09933996200561523 0.09621627628803253 0.0052044931799173355 -0.29483386874198914 -0.015323015861213207 -0.3423473834991455 0.0577828548848629 -0.10264981538057327 -0.44677266478538513 -0.5155255794525146 -0.5009981989860535 0.01996152475476265 -0.06689315289258957 -0.3915160298347473 -0.14983192086219788 -0.21584993600845337 -0.31630197167396545 -0.06252780556678772 -0.10179067403078079 0.11669305711984634 -0.42408695816993713 0.15064828097820282 -0.16724522411823273 -0.23946219682693481 -0.23853765428066254 -0.2814270555973053 -0.27960166335105896 0.4052385091781616 0.08701441437005997 -0.41578489542007446 
😕 0.4557948708534241 -0.30388590693473816 -0.13080163300037384 -0.009375831112265587 0.04934434965252876 0.22326061129570007 -0.12066751718521118 -0.06450939923524857 0.2820703089237213 0.4249107837677002 -0.23480693995952606 -0.29282233119010925 0.3928942084312439 -0.25610268115997314 -0.4260372817516327 -0.31053346395492554 0.03646005317568779 -0.18526926636695862 -0.3440580666065216 -0.3129357397556305 0.6064010262489319 -0.014597492292523384 -0.2976403832435608 0.22209659218788147 -0.18973945081233978 -0.22179318964481354 0.184657022356987 -0.10439931601285934 0.0667395368218422 0.21038438379764557 -0.5250961184501648 -0.1397143453359604 0.2952435314655304 0.06731592118740082 -0.21887575089931488 -0.29253721237182617 -0.22618933022022247 -0.0419488400220871 -0.3193524479866028 0.2172200232744217 0.04074632003903389 -0.2153339982032776 0.08123164623975754 -0.2912607789039612 -0.6740919947624207 -0.038060713559389114 -0.4149315357208252 0.10229073464870453 -0.14745205640792847 0.18545547127723694 -0.06406630575656891 0.10418029129505157 0.22709380090236664 -0.15366818010807037 0.14637108147144318 -0.39746496081352234 -0.224187970161438 0.10102171450853348 0.3230721950531006 -0.017037266865372658 -0.2911073565483093 -0.05220881849527359 0.44291698932647705 -0.24138806760311127 -0.1732214093208313 0.06818544119596481 -0.012193231843411922 0.15003815293312073 -0.04042845591902733 0.037766166031360626 -0.5488947033882141 0.31151142716407776 -0.010704395361244678 -0.23728927969932556 -0.1847713142633438 -0.03540953993797302 -0.10794315487146378 0.28297919034957886 -0.7685680389404297 0.1373114138841629 -0.5430912375450134 -0.0635613277554512 -0.025072870776057243 -0.2366974651813507 0.17264433205127716 0.25056639313697815 0.08386307954788208 -0.2558806836605072 0.1705225110054016 -0.31903472542762756 0.19658656418323517 0.35264939069747925 0.26317912340164185 0.06127217039465904 0.3253382444381714 0.4471603035926819 0.004029428120702505 0.07506173104047775 0.3833087682723999 -0.257239431142807 
🎎 0.07785982638597488 -0.05407492443919182 -0.0956437885761261 -0.05491059646010399 -0.2603963017463684 0.07800839841365814 -0.19910074770450592 0.5128122568130493 -0.05451136827468872 -0.08053091168403625 -0.6379278302192688 -0.4742513597011566 0.3379462957382202 -0.2598518133163452 -0.16171492636203766 0.2289334237575531 -0.41476985812187195 -0.4774123430252075 0.17963317036628723 -0.034803010523319244 0.13586406409740448 -0.214433953166008 -0.2933582067489624 0.002317815087735653 0.1251048743724823 -0.1906730830669403 0.26927539706230164 -0.06337735801935196 0.4203563630580902 -0.25256845355033875 -0.2976716160774231 -0.5473618507385254 0.24731627106666565 0.559581458568573 0.08203805983066559 0.4421897828578949 0.03243885561823845 0.26414477825164795 0.12032689154148102 0.09880796074867249 0.22179923951625824 -0.4242668151855469 0.21181298792362213 -0.05592309683561325 0.020213468000292778 0.16596858203411102 -0.1875530481338501 -0.555612325668335 -0.09408049285411835 -0.4897080957889557 -0.2353789061307907 -0.9248486161231995 -0.12209797650575638 0.03560437634587288 0.21726581454277039 -0.18318895995616913 -0.29573604464530945 -0.03914971649646759 -0.2373010814189911 0.38925954699516296 0.030446888878941536 -0.11892545968294144 0.026876507326960564 0.5274056792259216 -0.5302022099494934 0.20255543291568756 -0.33232611417770386 -0.30243366956710815 -0.2873236835002899 0.23194782435894012 -0.10406660288572311 -0.418793648481369 0.06552202999591827 -0.07476342469453812 0.08195794373750687 0.030666621401906013 -0.4065806567668915 0.39166370034217834 0.43450188636779785 -0.044174905866384506 -0.25575169920921326 -0.328875333070755 0.16439299285411835 0.30366939306259155 0.10428857803344727 0.30136772990226746 0.04358235374093056 0.3313826322555542 0.12910953164100647 -0.3225977420806885 0.30047374963760376 0.23381568491458893 0.20310483872890472 0.2772974371910095 -0.06720766425132751 -0.07938363403081894 0.1334122121334076 0.0669572725892067 0.48732858896255493 -0.3624298870563507 
🏊🏻 -0.09865691512823105 0.16311752796173096 -0.2168576717376709 -0.280412882566452 0.0470876581966877 -0.1420712172985077 0.03926127776503563 0.17132386565208435 0.002159981057047844 0.05233583226799965 0.06894255429506302 -0.17786678671836853 0.16275905072689056 -0.15327860414981842 0.017383405938744545 0.18917450308799744 0.20305272936820984 -0.006219377275556326 0.13464851677417755 0.25187355279922485 0.09047256410121918 -0.06151573732495308 0.26487070322036743 -0.12826812267303467 -0.0008613085374236107 -0.014353341422975063 -0.00838475115597248 -0.12900054454803467 0.14139947295188904 0.006975213065743446 0.08123946934938431 -0.20005498826503754 0.1461123675107956 0.2565174698829651 -0.10977376252412796 0.20487813651561737 0.20113925635814667 0.10852113366127014 -0.079935722053051 -0.1940859854221344 0.10704736411571503 0.3123382031917572 -0.07423527538776398 -0.03170108050107956 -0.05152389407157898 0.048345793038606644 -0.037847936153411865 -0.20132800936698914 -0.08421337604522705 -0.15283116698265076 0.0034242491237819195 -0.0227952990680933 -0.1754244863986969 -0.0021690046414732933 -0.053714241832494736 0.21533291041851044 0.21812580525875092 0.04364683851599693 -0.11795666068792343 0.04450821131467819 -0.28113874793052673 0.06995924562215805 -0.14405356347560883 -0.3018907904624939 0.1319921910762787 -0.16694244742393494 -0.21648642420768738 0.22054259479045868 -0.2237701416015625 -0.13122139871120453 0.21607571840286255 -0.013496961444616318 0.048364587128162384 -0.1769794374704361 -0.2453695386648178 -0.017800239846110344 0.12218597531318665 0.1535225361585617 0.05943763256072998 -0.2446194440126419 -0.1842932403087616 0.026626886799931526 0.017302818596363068 0.03675439581274986 -0.08542041480541229 0.36249569058418274 -0.07958406955003738 -0.10948425531387329 0.02109942026436329 -0.009465465322136879 0.13429582118988037 -0.11180678755044937 -0.13764214515686035 -0.07338201999664307 0.1663871556520462 -0.1516304910182953 0.1768847107887268 0.2476271688938141 0.15264227986335754 0.11742333322763443 
❗ 0.08455730229616165 -0.11264289915561676 -0.159076526761055 0.019878584891557693 0.08721671998500824 9.531633259030059e-05 0.045259542763233185 0.0867951363325119 -0.05216491222381592 0.3848946690559387 -0.06661373376846313 -0.13968034088611603 0.20278300344944 -0.11904160678386688 -0.19489333033561707 -0.054447486996650696 0.04456853121519089 0.05284854397177696 0.19259117543697357 -0.15612353384494781 -0.009358368813991547 0.11856918036937714 0.014792593196034431 -0.02198655717074871 -0.062412019819021225 -0.11743611842393875 -0.0499623604118824 0.0647178366780281 0.09503806382417679 -0.11546974629163742 0.1745976060628891 0.17433996498584747 0.09150933474302292 -0.24160456657409668 -0.04345380514860153 0.21530137956142426 -0.12100212275981903 -0.33766233921051025 0.09774255007505417 -0.12850648164749146 -0.04527901113033295 -0.012123298831284046 -0.09529726952314377 0.08592570573091507 -0.28992483019828796 -0.07187357544898987 -0.13667386770248413 -0.028403306379914284 -0.09600468724966049 0.25447702407836914 0.09346003085374832 -0.03297197446227074 0.07892394065856934 0.149505153298378 0.15093925595283508 -0.0033835216891020536 -0.017664629966020584 0.06817987561225891 0.016847899183630943 0.18350058794021606 -0.029928740113973618 -0.1612749695777893 0.0587247870862484 0.07081165164709091 0.21734416484832764 0.13877135515213013 0.0741153135895729 0.045720119029283524 -0.11134155094623566 0.10213613510131836 -0.13123226165771484 0.07803370803594589 -0.05853067710995674 -0.2409312129020691 0.2131119966506958 0.16202044486999512 0.17019835114479065 -0.21035292744636536 -0.10395143926143646 -0.009460612200200558 -0.15312980115413666 0.05056971311569214 -0.07626643031835556 0.16831155121326447 -0.2021547108888626 -0.1050841435790062 -0.09222953766584396 -0.015224823728203773 0.19657962024211884 0.10156512260437012 -0.031962718814611435 -0.1546531766653061 -0.009927784092724323 0.1250583976507187 0.31912708282470703 0.11836924403905869 -0.18264137208461761 -0.07931232452392578 0.3087519109249115 0.03211112692952156 
💭 -0.008230813778936863 0.6062114834785461 0.2640818655490875 -0.1574547439813614 -0.2017785906791687 0.2437610924243927 -0.06012538820505142 -0.08487355709075928 -0.1262245923280716 0.14089539647102356 -0.06335028260946274 -0.042862068861722946 0.1566799134016037 0.5714612007141113 0.017096133902668953 0.2767871618270874 -0.1663142591714859 0.06746653467416763 -0.1348913460969925 -0.08236529678106308 0.0012139565078541636 -0.10841001570224762 -0.4515872299671173 0.4017462134361267 0.018544862046837807 -0.1337144821882248 -0.1765587031841278 0.0656907707452774 0.2849281430244446 -0.610122799873352 -0.26931583881378174 -0.3161345422267914 0.21816667914390564 0.23063717782497406 -0.18634945154190063 0.3669552803039551 -0.10337674617767334 0.010839931666851044 0.17246420681476593 -0.18863116204738617 0.19767430424690247 0.6171103715896606 0.31523770093917847 -0.2510875463485718 -0.296941876411438 -0.018373429775238037 -0.31916892528533936 -0.042710136622190475 0.22260218858718872 -0.010983906686306 -0.06542728841304779 -0.09868601709604263 -0.07108724862337112 -0.2446064054965973 0.602506160736084 0.04055627062916756 -0.23740118741989136 0.2714657187461853 0.2650327980518341 -0.019035598263144493 -0.26812949776649475 -0.237394317984581 0.21614289283752441 -0.24249103665351868 -0.2373572289943695 0.007471286226063967 -0.3880400061607361 -0.1687767505645752 0.21246963739395142 0.38626301288604736 -0.061982739716768265 0.24459221959114075 0.4170161485671997 -0.4986724257469177 -0.2024306207895279 -0.42280593514442444 -0.3284027874469757 0.04383086785674095 -0.00704931141808629 0.009708448313176632 -0.21239294111728668 -0.2593038082122803 -0.3419894278049469 -0.0668480321764946 -0.08892995119094849 0.22526966035366058 -0.34411463141441345 0.0702025443315506 -0.2505611479282379 -0.2039911299943924 -0.1427939385175705 0.24887415766716003 -0.18039242923259735 0.05538798123598099 -0.330468088388443 -0.14158642292022705 -0.05602378025650978 0.05793410539627075 0.5015379786491394 -0.24685607850551605 
💬 0.07644109427928925 0.5367261171340942 -0.18634366989135742 -0.33613917231559753 -0.1216549351811409 -0.23337438702583313 0.3383687138557434 -0.17548802495002747 0.12739460170269012 0.07701252400875092 0.05628685653209686 -0.41500231623649597 0.18890847265720367 0.003932800143957138 -0.21323025226593018 0.2596328854560852 -0.7422193884849548 0.08860623836517334 -0.22272855043411255 0.04645656794309616 -0.1436111479997635 0.32129642367362976 -0.5307527780532837 0.7930792570114136 -0.013377957046031952 -0.15615646541118622 -0.22980153560638428 -0.26316866278648376 0.20423364639282227 -0.3220764696598053 -0.33531320095062256 -0.7208352088928223 -0.29877927899360657 0.17172887921333313 0.143525630235672 0.44796857237815857 0.31000545620918274 0.10746034979820251 0.20211634039878845 -0.7223966717720032 0.19423219561576843 0.08321631699800491 0.0543801374733448 0.06424115598201752 -0.35043057799339294 0.5257362127304077 -0.029277563095092773 0.13156607747077942 -0.14922484755516052 -0.25169092416763306 0.3257906138896942 -0.12280388921499252 -0.04139213636517525 -0.1204281747341156 0.507491409778595 -0.43571537733078003 -0.008714726194739342 -0.08791839331388474 0.09847356379032135 -0.17535197734832764 -0.3474498987197876 -0.17513498663902283 0.4510401487350464 -0.19197212159633636 -0.04621897637844086 -0.221048042178154 -0.20472964644432068 0.12460276484489441 0.28770262002944946 0.4625769853591919 -0.08793121576309204 -0.10776430368423462 0.31045979261398315 -0.3222309947013855 0.058131106197834015 -0.35017696022987366 -0.05523999035358429 -0.010702411644160748 0.005459188017994165 -0.21393407881259918 -0.42434823513031006 -0.07244738936424255 0.34519222378730774 -0.19856101274490356 -0.09736047685146332 0.13484366238117218 -0.2528534531593323 -0.04668322950601578 -0.08305925875902176 -0.14705272018909454 -0.12410157918930054 0.15062853693962097 -0.4848790764808655 0.16193248331546783 0.018904728814959526 0.07528941333293915 0.26215660572052 -0.004984717350453138 0.06487017869949341 -0.6668310165405273 
🎴 0.017902862280607224 0.2657420039176941 -0.20572108030319214 -0.05366037040948868 0.026948226615786552 0.07270345091819763 -0.022152703255414963 -0.16261756420135498 -0.2159547507762909 0.27751052379608154 -0.10945793241262436 0.1108538806438446 0.25755488872528076 -0.009927035309374332 0.12760458886623383 0.21318700909614563 -0.5046480894088745 0.34970226883888245 -0.012181292288005352 -0.2575951814651489 -0.16127994656562805 0.1798047423362732 -0.40680861473083496 -0.2495443969964981 -0.27463892102241516 -0.23818881809711456 0.0508040226995945 -0.1007227897644043 0.285020649433136 -0.5031706690788269 -0.5097911953926086 -0.1970262974500656 0.036676909774541855 -0.013262011110782623 0.1664160192012787 0.6502773761749268 0.392203688621521 -0.39187297224998474 -0.25495871901512146 -0.06666849553585052 -0.18725648522377014 0.13452231884002686 -0.00985861849039793 0.2157594859600067 -0.23011799156665802 -0.38721853494644165 -0.43135184049606323 -0.4092993438243866 -0.09423315525054932 0.19543619453907013 0.013353042304515839 -0.5599952936172485 0.09092313796281815 0.10163265466690063 0.07324738800525665 -0.3126923739910126 0.22471192479133606 0.06563372910022736 0.5089783072471619 -0.18319736421108246 -0.1938808411359787 -0.30467304587364197 0.13303397595882416 -0.08050975203514099 -0.08330763876438141 0.24004143476486206 -0.021512258797883987 0.22953009605407715 -0.31743505597114563 -0.03929740563035011 -0.03219425678253174 -0.13935983180999756 -0.1664690524339676 -0.1933482438325882 0.045482855290174484 -0.46250706911087036 -0.5985813736915588 0.292330265045166 -0.5025836229324341 -0.21240445971488953 -0.23989716172218323 -0.36502376198768616 0.4278329908847809 0.01762879267334938 0.1065560057759285 0.23957790434360504 0.015959933400154114 0.19200770556926727 0.1983865648508072 0.09033478796482086 0.1650266796350479 0.24221764504909515 -0.3598438501358032 0.2015663981437683 0.046934280544519424 0.42484426498413086 0.07368222624063492 -0.0052287341095507145 -0.06840315461158752 -0.19539207220077515 
♉ -0.2732640504837036 -0.10669857263565063 -0.08025973290205002 -0.39310693740844727 -0.48486703634262085 -0.20644120872020721 -0.2884073555469513 -0.0012897172709926963 0.06124189868569374 0.3320388197898865 0.2083824723958969 -0.4930127263069153 0.20851372182369232 0.30813512206077576 -0.0840136706829071 -0.1365707367658615 0.003942078445106745 0.07817006856203079 0.3779880106449127 -0.21713422238826752 0.07343589514493942 -0.19350875914096832 -0.4524783194065094 -0.39860960841178894 -0.12150207161903381 -0.3185344636440277 0.25776365399360657 0.16453371942043304 0.180559903383255 0.22279828786849976 -0.38895943760871887 -0.26018330454826355 -0.3262666165828705 0.3551560640335083 0.18651758134365082 -0.11247321963310242 0.387472927570343 0.16136880218982697 -0.08596116304397583 -0.43106305599212646 -0.029604516923427582 0.040178876370191574 0.1967075765132904 -0.7414841651916504 -0.4246155321598053 0.061445966362953186 -0.08335668593645096 0.019255321472883224 0.16928568482398987 -0.05205162987112999 -0.18408451974391937 0.1876278966665268 0.2539944648742676 0.07161550968885422 0.13452161848545074 -0.01563308946788311 0.021679086610674858 0.17409354448318481 0.1442679464817047 -0.6287401914596558 -0.22854845225811005 -0.24055080115795135 -0.3835584223270416 0.10335103422403336 -0.10014976561069489 0.20545218884944916 0.3120849132537842 0.2858453094959259 -0.357388973236084 0.27850863337516785 -0.19378139078617096 0.0768587589263916 0.15620721876621246 0.3771870732307434 -0.4034639894962311 -0.519892156124115 0.04035283997654915 -0.23694685101509094 0.13954368233680725 -0.1617732048034668 -0.29922041296958923 -0.007472167257219553 -0.11088857054710388 0.3502083420753479 -0.07429815083742142 0.27149498462677 -0.4664126932621002 0.33476996421813965 -0.39687326550483704 0.1260089874267578 0.2535800337791443 0.36083394289016724 -0.2093416005373001 0.4354631304740906 -0.1351296752691269 0.20357656478881836 0.14961779117584229 -0.1065637618303299 -0.11143559962511063 0.06549747288227081 
⚖ 0.16819414496421814 -0.11253288388252258 0.26717397570610046 -0.07511764764785767 -0.09060006588697433 0.13865990936756134 -0.11201093345880508 -0.023334098979830742 -0.27723070979118347 0.3123317062854767 0.1665945202112198 -0.10110752284526825 0.31223639845848083 -0.22898821532726288 -0.09416745603084564 -0.032036829739809036 -0.3031891882419586 -0.3569417893886566 0.3251381814479828 0.12207186222076416 0.18028581142425537 0.05029707029461861 0.0989440381526947 0.09612855315208435 -0.1377650797367096 -0.07614815980195999 0.3618953824043274 0.2491678148508072 0.251953125 0.1918276697397232 -0.028524283319711685 -0.02639177441596985 -0.042589496821165085 0.1670817732810974 0.057639800012111664 0.24579232931137085 -0.21469368040561676 0.32477083802223206 0.19096146523952484 -0.1900801658630371 0.33015820384025574 -0.07896746695041656 -0.13328838348388672 0.0987405851483345 0.12019852548837662 -0.2970843017101288 -0.04728095233440399 0.051472313702106476 0.15740762650966644 -0.02445918321609497 -0.16180145740509033 -0.16250380873680115 -0.23652341961860657 0.10527641326189041 -0.24446599185466766 -0.11142521351575851 -0.0331137590110302 0.00818527303636074 0.0923035517334938 0.05106719210743904 -0.2509506046772003 0.039800867438316345 0.1539842039346695 0.04737718775868416 0.3181123733520508 0.2524931728839874 -0.0033816967625170946 0.017721369862556458 -0.06319642812013626 0.05523449555039406 0.019976336508989334 0.3049612045288086 -0.10888906568288803 0.17569144070148468 0.20919141173362732 -0.3894802927970886 -0.38661375641822815 -0.17671366035938263 -0.132123664021492 -0.2025100141763687 -0.32572272419929504 0.26787832379341125 0.38737788796424866 0.050799354910850525 -0.29564139246940613 -0.0027650282718241215 -0.00459532905369997 -0.05104425922036171 0.13485108315944672 0.05948233604431152 0.41018930077552795 0.029051458463072777 0.15038372576236725 0.05381118878722191 -0.1308751404285431 -0.30106666684150696 0.2992645502090454 0.05753908306360245 0.4462999701499939 0.19128181040287018 
🇮🇩 0.17646658420562744 0.18211349844932556 0.15171968936920166 0.180059552192688 0.04822452738881111 -0.14734269678592682 -0.0038163703866302967 0.12772439420223236 0.22214601933956146 0.3152841329574585 0.08472397178411484 -0.13393676280975342 0.11907064914703369 0.2725052237510681 -0.14539550244808197 -0.1397828757762909 -0.2869264781475067 -0.19534975290298462 0.2092103660106659 -0.06003553420305252 0.09460633248090744 0.12848493456840515 -0.11009291559457779 -0.061310406774282455 0.06371495872735977 -0.17912951111793518 0.21837283670902252 -0.00800637248903513 0.029154924675822258 -0.2998964488506317 -0.109552763402462 -0.1981622278690338 0.010531035251915455 0.013360794633626938 0.06864649057388306 -0.33083266019821167 0.3096521496772766 -0.05024636536836624 0.2504538595676422 -0.08073315024375916 0.01917296089231968 0.06226728856563568 0.020194513723254204 -0.26416802406311035 -0.30198314785957336 -0.045084644109010696 -0.2518153786659241 -0.21943062543869019 0.09006805717945099 0.03286411240696907 -0.21399931609630585 0.23312976956367493 0.0009173250873573124 -0.054759636521339417 0.3268103003501892 -0.05373184755444527 -0.16664421558380127 -0.1534126251935959 -0.11643784493207932 -0.1101747527718544 0.12061060965061188 -0.14922332763671875 0.004269769415259361 -0.03562379255890846 -0.10957512259483337 0.08619454503059387 -0.13450849056243896 0.10010716319084167 0.11545056104660034 -0.10531193763017654 -0.23877713084220886 0.09207737445831299 -0.0284839179366827 0.07484801858663559 -0.028432978317141533 -0.16623948514461517 -0.19781138002872467 0.13484762609004974 -0.14445756375789642 -0.11828993260860443 -0.44943681359291077 0.05850904434919357 0.20998284220695496 0.13433532416820526 -0.2652134299278259 0.1396978348493576 -0.25336822867393494 0.08155380189418793 0.0683492049574852 -0.11791754513978958 -0.12766805291175842 -0.053412728011608124 -0.125510573387146 -0.009273896925151348 -0.1912471204996109 -0.19545423984527588 -0.16063477098941803 0.0965418815612793 0.09796997904777527 -0.24979259073734283 
🛵 0.2773311734199524 -0.0070689981803298 0.15942777693271637 -0.30271345376968384 0.0647326409816742 -0.042249783873558044 -0.08127816021442413 0.3253864347934723 0.25286075472831726 0.3018438220024109 0.36068183183670044 -0.00696143601089716 0.5908844470977783 0.1631426215171814 0.05075807869434357 -0.39463430643081665 -0.14991191029548645 -0.2979954779148102 -0.11468508094549179 0.16581416130065918 0.09498360753059387 0.031171029433608055 -0.10919293016195297 -0.07218755781650543 0.1533285230398178 -0.32820823788642883 0.024593446403741837 0.20554111897945404 -0.10934396088123322 -0.21842096745967865 -0.47007399797439575 -0.14360255002975464 0.23006458580493927 0.33132755756378174 0.14622722566127777 0.1477665901184082 0.21117766201496124 0.1898866593837738 -0.2097623646259308 -0.21447499096393585 -0.025145402178168297 0.47691136598587036 -0.2280413806438446 -0.20519593358039856 -0.17018909752368927 0.14131221175193787 -0.13027852773666382 -0.27913185954093933 -0.07324902713298798 -0.031178627163171768 0.0901278704404831 -0.014352056197822094 -0.08587154000997543 -0.160378098487854 0.15993869304656982 0.009914129972457886 -0.19740502536296844 0.1632802039384842 -0.04547024145722389 -0.17899538576602936 0.10539741814136505 -0.040140897035598755 0.3990834057331085 -0.14092721045017242 0.14059990644454956 0.053691599518060684 -0.2764101028442383 -0.30317461490631104 -0.18703661859035492 0.36901742219924927 0.13833598792552948 0.13910165429115295 -0.039792899042367935 0.10947757959365845 0.14349719882011414 -0.1086263507604599 -0.0715748518705368 -0.03776552155613899 -0.018107840791344643 -0.24573621153831482 -0.6223254203796387 -0.3071539103984833 -0.05663425847887993 -0.043394483625888824 -0.3850075304508209 -0.21680207550525665 -0.35349348187446594 0.09813382476568222 -0.017588946968317032 0.1378168761730194 0.17214874923229218 0.04326588660478592 -0.06628885120153427 -0.035931315273046494 -0.09440850466489792 -0.1417926549911499 -0.15421347320079803 0.07713353633880615 -0.01828915998339653 -0.2423427253961563 
⬅️ 0.13102053105831146 0.07068584859371185 -0.1471455693244934 -0.06912734359502792 -0.2822503447532654 -0.14754578471183777 -0.03479919210076332 -0.2939312756061554 -0.062481872737407684 0.3620583713054657 0.17994610965251923 0.14158660173416138 0.2620265483856201 -0.0722188875079155 0.13607189059257507 0.013729285448789597 -0.13585588335990906 -0.060512471944093704 0.29373541474342346 0.2520471513271332 -0.05308609455823898 -0.08247172087430954 0.014629236422479153 -0.25656768679618835 -0.17970861494541168 -0.12241964787244797 -0.07811076939105988 -0.15124890208244324 0.07804025709629059 0.15662924945354462 0.058150287717580795 -0.29249879717826843 0.3746004104614258 0.25098493695259094 0.14561809599399567 0.0800619050860405 0.10555746406316757 -0.07218282669782639 -0.24121563136577606 -0.05864172801375389 0.08554868400096893 -0.04959653690457344 -0.012909873388707638 -0.06221940368413925 0.019170040264725685 0.1566353589296341 -0.058955177664756775 -0.13998401165008545 0.10035686194896698 -0.21533417701721191 -0.188288614153862 -0.05484224110841751 -0.10804903507232666 -0.09998566657304764 -0.020233938470482826 -0.22808456420898438 -0.16189901530742645 0.19052529335021973 -0.4192622900009155 0.005228194873780012 -0.20546063780784607 0.03221535310149193 -0.031962811946868896 -0.07369429618120193 -0.18023385107517242 0.17465300858020782 0.21579423546791077 0.03992746025323868 0.09301906824111938 -0.11991173774003983 0.1840319037437439 0.01722714491188526 -0.3370268642902374 0.11423582583665848 -0.011754252947866917 -0.08666615188121796 0.16430990397930145 0.11672769486904144 -0.32188498973846436 -0.056571003049612045 -0.1420077234506607 0.11161082983016968 0.011952697299420834 -0.1277327835559845 0.2566226124763489 -0.05330068990588188 -0.07579918950796127 0.05745306238532066 -0.21025456488132477 -0.21794773638248444 -0.1305200606584549 -0.14523454010486603 -0.377672404050827 -0.013330730609595776 0.03377873823046684 0.1512991189956665 -0.19266659021377563 -0.033229317516088486 -0.04721379280090332 0.07716331630945206 
📒 -0.02283458225429058 -0.4323680102825165 -0.12299259752035141 0.0006706004496663809 0.054041653871536255 -0.2131967842578888 -0.161669060587883 0.18173690140247345 -0.44675686955451965 0.41600680351257324 -0.06272627413272858 0.26854047179222107 0.326050341129303 0.1581302136182785 0.15764294564723969 -0.13901963829994202 -0.04135531559586525 0.19373629987239838 0.22696955502033234 -0.0309536661952734 -0.12980715930461884 -0.054203495383262634 0.08329103142023087 -0.002187672071158886 -0.43893975019454956 -0.2772825062274933 0.021586228162050247 -0.22027021646499634 0.4956282377243042 -0.32211747765541077 -0.0558679923415184 0.13544759154319763 0.31144222617149353 0.2804065942764282 -0.17171311378479004 -0.018358998000621796 -0.07965590059757233 0.04479755833745003 -0.18794019520282745 0.021107267588377 0.2536427974700928 -0.16508358716964722 -0.17243336141109467 -0.30145323276519775 -0.1973341554403305 -0.008699488826096058 -0.24103374779224396 -0.35363882780075073 -0.26027196645736694 -0.08713600784540176 -0.2876352071762085 0.1666005551815033 -0.28555479645729065 -0.40920397639274597 -0.198772594332695 -0.5307437777519226 0.29001501202583313 0.049306903034448624 0.05000927671790123 -0.25940343737602234 -0.30196624994277954 -0.2903442680835724 0.15389040112495422 -0.25640860199928284 -0.41778939962387085 -0.06796589493751526 0.02054733783006668 -0.2618166208267212 0.09969718754291534 0.09406810253858566 -0.03521938621997833 0.11487196385860443 0.3485364317893982 -0.1753155142068863 -0.05064479261636734 -0.47734907269477844 -0.1311507225036621 0.07234051823616028 -0.5252564549446106 -0.2143971025943756 -0.2322024255990982 0.2971876859664917 0.29639244079589844 -0.09970130026340485 -0.147325798869133 -0.06975529342889786 0.17973728477954865 0.20199117064476013 0.14307895302772522 0.147152379155159 0.17202697694301605 0.24072732031345367 -0.13143688440322876 -0.42463064193725586 0.20675979554653168 0.28928330540657043 0.304040789604187 0.1141885370016098 -0.2868438959121704 0.246207594871521 
😡 0.13956302404403687 0.11261644214391708 -0.2128477692604065 -0.01087774895131588 0.2266371250152588 0.0014392929151654243 -0.1748715043067932 0.20672257244586945 -0.019465085119009018 0.5111689567565918 -0.1769823580980301 -0.4578855633735657 0.3669666647911072 -0.0584365539252758 0.025230158120393753 -0.11056257784366608 -0.015167761594057083 -0.18478365242481232 -0.32271522283554077 0.032491106539964676 0.3993431329727173 -0.11120494455099106 -0.07985382527112961 -0.07099457085132599 -0.1387278437614441 -0.43674081563949585 0.5653708577156067 0.05011790990829468 -0.16435247659683228 -0.026801656931638718 -0.23132969439029694 0.27126094698905945 -0.4711320698261261 -0.19166085124015808 0.005390292964875698 0.15324071049690247 -0.2072436660528183 -0.24359942972660065 0.09221795946359634 -0.20902986824512482 -0.17153674364089966 -0.039483506232500076 -0.14016352593898773 0.0696316584944725 0.10500556975603104 -0.17344626784324646 0.1712305247783661 0.22304828464984894 -0.14364898204803467 0.032529961317777634 0.1059836894273758 -0.16321992874145508 0.5189789533615112 0.10359077155590057 0.4368860721588135 -0.09529639035463333 -0.3085974454879761 0.17259061336517334 0.17087286710739136 0.23030142486095428 -0.02873578481376171 -0.12534065544605255 0.2069362848997116 0.005581699777394533 0.2746853232383728 0.1312446892261505 0.2668714225292206 0.40896353125572205 -0.17759187519550323 0.23519136011600494 -0.30690255761146545 -0.23803500831127167 -0.13538694381713867 -0.2797921299934387 -0.23430773615837097 0.19065377116203308 0.042898211628198624 -0.02720010280609131 -0.16761527955532074 0.011863935738801956 -0.3285001218318939 -0.02060946263372898 0.45348411798477173 -0.15057742595672607 0.2295154184103012 0.4192814528942108 -0.15817266702651978 0.33580949902534485 -0.04328736290335655 0.0390518419444561 -0.623947024345398 -0.18427035212516785 0.2217632383108139 0.01248184870928526 0.3103867471218109 0.0743139460682869 -0.40472638607025146 -0.18284225463867188 0.19843681156635284 0.027185693383216858 
🇲🇦 0.05153099074959755 0.1273709088563919 -0.06621789932250977 0.09474976360797882 0.10200285166501999 -0.05005710944533348 -0.2770923674106598 0.1558636873960495 0.11376829445362091 0.026577245444059372 0.03159858286380768 -0.08089790493249893 0.008262593299150467 0.06705380976200104 0.1344476342201233 -0.32454389333724976 -0.3234703540802002 0.15089786052703857 -0.3172435462474823 -0.03693458437919617 -0.014232185669243336 -0.008014722727239132 0.016559209674596786 -0.16267061233520508 -0.02007601223886013 -0.27380552887916565 0.1573377102613449 -0.07465661317110062 0.14329537749290466 0.3154512345790863 0.023918896913528442 -0.27780696749687195 -0.19536647200584412 0.21876734495162964 0.2066732794046402 0.037047456949949265 0.07349050790071487 -0.16824132204055786 0.17894205451011658 0.05642057582736015 -0.022745314985513687 -0.016283322125673294 0.10925213992595673 0.0497511588037014 -0.04464147612452507 0.06586448848247528 -0.03608447313308716 -0.16430889070034027 -0.07294324040412903 -0.4257235825061798 0.12538652122020721 0.05360150709748268 -0.09368157386779785 0.0913819670677185 0.1130174845457077 0.18934892117977142 0.22818857431411743 -0.055665746331214905 -0.03580539673566818 -0.11356919258832932 0.12135200202465057 -0.1171019896864891 -0.12880688905715942 0.1384642869234085 -0.0539025142788887 0.07508048415184021 -0.014411606825888157 -0.1060694083571434 -0.12127288430929184 -0.23037303984165192 -0.07250604033470154 0.09471099823713303 0.12448523938655853 0.17252685129642487 0.05716630443930626 -0.006367023102939129 -0.18540523946285248 0.0421648845076561 0.24546672403812408 0.07619698345661163 -0.2671445608139038 -0.1933841109275818 0.06523311138153076 0.03054535761475563 0.114864781498909 0.08143342286348343 -0.266876220703125 -0.1709190309047699 0.1318640112876892 -0.055991195142269135 0.15740835666656494 0.0641978308558464 0.04375201836228371 -0.002908759517595172 -0.11253543943166733 -0.14502084255218506 -0.2047071009874344 0.18689806759357452 0.07136964052915573 -0.17745229601860046 
